tree
version=v4
num_class=3
num_tree_per_iteration=3
label_index=0
max_feature_idx=8
objective=multiclass num_class:3
feature_names=Column_0 Column_1 Column_2 Column_3 Column_4 Column_5 Column_6 Column_7 Column_8
feature_infos=[2621.77:5585.7399999999998] [2623.8200000000002:5598.04] [2614.6700000000001:5577.8000000000002] [2621.79:5585.8400000000001] [1:13851] [0:1] [0:1] [0:1] [1:23]
tree_sizes=3364 3311 3366 3445 3441 3474 3450 3441 3456 3437 3445 3456 3448 3439 3482 3451 3459 3468 3449 3438 3449 3450 3460 3469 3453 3415 3467 3440 3463 3473 3454 3448 3468 3451 3460 3463 3437 3455 3451 3445 3461 3476 3453 3451 3462 3436 3426 3469 3428 3434 3458 3461 3446 3473 3444 3456 3448 3448 3454 3449 3435 3426 3468 3453 3457 3464 3439 3490 3446 3435 3485 3464 3434 3487 3458 3441 3469 3453 3446 3465 3459 3432 3464 3468 3461 3473 3462 3450 3450 3452 3442 3467 3451 3454 3458 3445 3451 3454 3458 3459 3459 3448 3457 3462 3428 3450 3468 3442 3434 3463 3461 3445 3464 3459 3444 3471 3440 3403 3473 3444 3446 3468 3471 3446 3456 3439 3431 3467 3425 3432 3469 3440 3418 3473 3436 3448 3464 3429 3438 3466 3469 3431 3473 3434 3458 3485 3444 3438 3460 3431 3448 3474 3404 3455 3464 3436 3442 3472 3444 3435 3469 3412 3409 3462 3425 3452 3461 3413 3415 3456 3432 3454 3433 3442 3467 3451 3424 3444 3464 3432 3423 3446 3406 3443 3456 3416 3435 3458 3407 3429 3436 3443 3425 3450 3426 3433 3450 3419 3410 3441 3430 3449 3468 3424 3436 3472 3424 3446 3439 3419 3416 3467 3431 3416 3470 3432 3441 3467 3459 3420 3464 3421 3435 3444 3425 3435 3454 3427 3436 3455 3427 3451 3463 3420 3418 3465 3431 3437 3473 3423 3407 3457 3449 3443 3454 3435 3419 3435 3421 3449 3454 3426 3443 3464 3422 3427 3450 3441 3447 3470 3429 3430 3424 3427 3431 3453 3450 3449 3472 3409 3439 3428 3406 3428 3458 3421 3433 3428 3432 3435 3456 3435 3422 3428 3417 3437 3452 3422 3431 3418 3447 3426 3434 3430 3410 3458 3396 3441 3462 3423 3418 3464 3443 3424 3435 3416 3426 3439 3445 3425 3455 3438 3429 3431 3425 3437 3434 3431 3431 3472 3429 3423 3458 3420 3416 3470 3420 3414 3459 3447 3429 3444 3435 3435 3455 3427 3427 3454 3423 3415 3434 3437 3445 3432 3433 3408 3444 3431 3438 3447 3441 3441 3440 3420 3435 3428 3420 3428 3435 3423 3421 3438 3427 3417 3445 3431 3438 3446 3424 3414 3430 3439 3427 3425 3414 3428 3440 3420 3434 3450 3415 3429 3427 3422 3431 3433 3445 3420 3425 3459 3422 3439 3428 3429 3421 3418 3439 3425 3426 3421 3435 3423 3427 3445 3416 3445 3445 3422 3446 3434 3427 3428 3431 3412 3430 3454 3414 3407 3442 3420 3421 3425 3442 3436 3438 3429 3403 3407 3426 3416 3423 3427 3421 3453 3421 3412 3437 3431 3442 3429 3428 3431 3443 3416 3389 3429 3414 3418 3417 3416

Tree=0
num_leaves=31
num_cat=0
split_feature=4 4 2 4 4 1 4 8 8 4 0 1 8 2 0 3 3 1 4 3 4 2 8 2 0 2 6 1 1 1
split_gain=46.4212 18.5789 10.61 7.04315 6.36182 6.05066 5.93519 5.67439 7.37345 5.43961 5.09141 5.06795 9.16649 5.77041 4.98681 5.13461 6.97626 5.50253 5.66919 4.53274 4.46912 4.20561 3.90116 5.13909 3.79433 6.83714 3.72326 3.80644 4.79713 3.53769
threshold=1408.5000000000002 3453.5000000000005 4997.5500000000002 991.50000000000011 9657.5000000000018 3033.3250000000003 1421.5000000000002 15.500000000000002 13.500000000000002 1205.5000000000002 2805.0150000000008 3415.7500000000005 19.500000000000004 3981.7800000000002 2898.3300000000004 3363.8250000000003 3373.8650000000002 3358.1100000000001 4739.5000000000009 3952.4100000000003 381.50000000000006 4207.505000000001 1.5000000000000002 3313.5150000000008 4753.4000000000005 4410.7300000000005 1.0000000180025095e-35 3389.6550000000002 3385.8100000000009 4148.6800000000012
decision_type=2 2 2 2 2 2 2 2 2 2 2 2 2 2 2 2 2 2 2 2 2 2 2 2 2 2 2 2 2 2
left_child=2 5 3 20 14 6 -2 8 22 -10 -9 12 26 -13 -3 17 -17 -16 -19 -18 -1 -22 23 -5 25 -24 -7 28 -28 -21
right_child=1 4 -4 7 -6 11 -8 10 9 -11 -12 13 -14 -15 15 16 19 18 -20 29 21 -23 24 -25 -26 -27 27 -29 -30 -31
leaf_value=-0.98456195728355722 -0.95287044196039739 -0.97413749527415372 -0.94873404114695925 -0.9932577999027169 -0.95579052738312753 -0.96983156182211028 -0.97377915962528561 -0.99286416093641749 -0.94877659671088355 -0.97039095449677848 -0.97676568459051749 -0.9745081307386565 -0.97511343583732479 -0.97109245537988764 -0.96652087729786595 -0.98557275608373307 -0.97181414392485499 -0.96397588087901587 -0.93689585700075584 -0.96590004932655971 -0.9767212958743563 -0.98862497206857769 -0.97296323465343937 -0.97513624777789731 -0.98931016341211431 -0.95103204159886934 -0.96637197177473111 -0.95213108529326107 -0.98688084864866643 -0.96916440105819934
leaf_weight=77.623299956321716 12.349161356687544 142.1917721927166 13.054827719926832 19.758658170700073 34.930484980344772 1088.8431984782219 1155.8815029859543 19.052991807460785 19.052991807460785 23.286989986896515 245.57189440727234 617.81090101599693 255.45122349262238 1592.6889818310738 518.66477698087692 22.934156805276871 380.70700296759605 17.288825899362568 11.643494993448256 440.68864384293556 908.89827585220337 27.520988166332245 639.33372509479523 49.043812245130539 12.349161356687544 13.054827719926832 339.07268753647804 16.230326354503632 10.584995448589323 927.95126765966415
leaf_count=220 35 403 37 56 99 3086 3276 54 54 66 696 1751 724 4514 1470 65 1079 49 33 1249 2576 78 1812 139 35 37 961 46 30 2630
internal_value=-0.971709 -0.970623 -0.975694 -0.975865 -0.968504 -0.971663 -0.973558 -0.974131 -0.972837 -0.960664 -0.977925 -0.971098 -0.969872 -0.972047 -0.968684 -0.96835 -0.969134 -0.965811 -0.953078 -0.968919 -0.977645 -0.977071 -0.97354 -0.98034 -0.972836 -0.972524 -0.968952 -0.966334 -0.966993 -0.968113
internal_weight=9653.52 7585.91 2067.6 2054.55 2497 5088.91 1168.23 1040.51 775.88 42.34 264.625 3920.68 1710.18 2210.5 2462.07 2319.88 1772.28 547.597 28.9323 1749.35 1014.04 936.419 733.54 68.8025 664.738 652.389 1454.73 365.888 349.658 1368.64
internal_count=27360 21500 5860 5823 7077 14423 3311 2949 2199 120 750 11112 4847 6265 6978 6575 5023 1552 82 4958 2874 2654 2079 195 1884 1849 4123 1037 991 3879
is_linear=0
shrinkage=1


Tree=1
num_leaves=31
num_cat=0
split_feature=4 4 4 8 3 0 4 4 2 1 2 0 3 8 4 2 0 0 1 8 0 3 5 2 4 4 1 4 4 8
split_gain=431.097 96.5541 80.5851 32.281 27.3097 19.3483 18.0844 13.485 11.39 16.0919 13.8865 10.3113 8.43376 7.91901 6.42088 6.22232 7.77374 9.88624 6.36461 6.63247 6.17848 6.01907 5.64257 5.54397 5.40927 5.43521 5.08029 4.93117 4.97918 4.79494
threshold=2020.5000000000002 1039.5000000000002 3239.5000000000005 18.500000000000004 2881.3150000000005 4659.7900000000009 381.50000000000006 4471.5000000000009 3747.3250000000003 3338.1050000000005 3033.4600000000005 2911.7750000000005 4517.8350000000009 13.500000000000002 811.50000000000011 4997.5500000000002 3362.0250000000005 3096.2550000000006 3288.0900000000006 17.500000000000004 3343.0450000000005 3368.9150000000004 1.0000000180025095e-35 3281.3650000000002 1731.5000000000002 1525.5000000000002 3369.3150000000005 1744.5000000000002 1838.5000000000002 20.500000000000004
decision_type=2 2 2 2 2 2 2 2 2 2 2 2 2 2 2 2 2 2 2 2 2 2 2 2 2 2 2 2 2 2
left_child=1 6 5 4 13 11 20 12 9 10 27 -2 -4 24 -8 16 17 -6 -19 -20 -1 26 -13 -12 25 -3 -18 -5 -29 -14
right_child=2 3 7 8 15 -7 14 -9 -10 -11 23 22 29 -15 -16 -17 21 18 19 -21 -22 -23 -24 -25 -26 -27 -28 28 -30 -31
leaf_value=-1.5503822953494479 -1.586616504864671 -1.5763046103776386 -1.5979803463240512 -1.56850896568614 -1.5855324458170428 -1.6012655249669074 -1.5716671330169567 -1.6043555332712109 -1.58976155847026 -1.5681412188626116 -1.5954371362609772 -1.5955684419208485 -1.6064166327379465 -1.5998030061100335 -1.5773441385467053 -1.6012917562695859 -1.5800021751007449 -1.5997054044824406 -1.5920985712093974 -1.5704243137253509 -1.5742151127427293 -1.5869048052135275 -1.5916252347175111 -1.5828935241295423 -1.5829719011941246 -1.5629324814811525 -1.5524541477089513 -1.5955383572154829 -1.5743582617965324 -1.5932936336949746
leaf_weight=40.636846899986267 271.80453884601593 83.707037925720215 825.14699304103851 72.513654947280884 223.86765956878662 228.73434782028198 403.20512163639069 912.99071598052979 68.376969933509827 135.78060221672058 49.396885752677917 498.59221136569977 186.15082561969757 12.896723866462706 322.90476548671722 36.50016188621521 29.930132746696472 104.3904629945755 385.19837510585785 13.140058279037474 12.896723866462706 521.2223117351532 946.81419932842255 88.573726177215576 58.886927843093872 40.636846899986267 7.5433667898178092 14.600064754486082 31.633473634719849 28.9567950963974
leaf_count=167 1117 344 3391 298 920 940 1657 3752 281 558 203 2049 765 53 1327 150 123 429 1583 54 53 2142 3891 364 242 167 31 60 130 119
internal_value=-1.59097 -1.58189 -1.59739 -1.58542 -1.58753 -1.59307 -1.57295 -1.60169 -1.57846 -1.57649 -1.58091 -1.59198 -1.59936 -1.57708 -1.57419 -1.58908 -1.58873 -1.59078 -1.59311 -1.59138 -1.55612 -1.58607 -1.59299 -1.58738 -1.57548 -1.57193 -1.57446 -1.57339 -1.58105 -1.60465
internal_weight=6657.63 2758.44 3899.19 1978.8 1517.92 1945.95 779.643 1953.25 460.875 392.498 256.718 1717.21 1040.25 196.128 726.11 1321.79 1285.29 726.597 502.729 398.338 53.5336 558.696 1445.41 137.971 183.231 124.344 37.4735 118.747 46.2335 215.108
internal_count=27360 11336 16024 8132 6238 7997 3204 8027 1894 1613 1055 7057 4275 806 2984 5432 5282 2986 2066 1637 220 2296 5940 567 753 511 154 488 190 884
is_linear=0
shrinkage=1


Tree=2
num_leaves=31
num_cat=0
split_feature=4 4 4 0 3 0 2 1 8 4 4 8 0 2 0 4 0 8 5 0 3 4 4 8 3 3 3 3 0 0
split_gain=131.524 15.3529 15.2442 8.79289 9.80096 15.2245 7.72485 7.469 6.08558 5.36895 4.89186 4.87273 4.80735 9.0922 4.79526 4.77762 6.10197 4.3446 4.14422 4.57962 4.05202 3.97894 4.12385 4.67267 3.8618 3.7387 3.69161 9.74383 3.65021 3.64376
threshold=2161.5000000000005 2805.5000000000005 791.50000000000011 3713.2300000000005 3337.9550000000004 2956.7450000000003 4432.1050000000005 4697.6450000000013 8.5000000000000018 1188.5000000000002 6210.5000000000009 17.500000000000004 4923.7900000000018 4804.7750000000005 2689.3100000000009 3307.5000000000005 4214.6000000000013 1.5000000000000002 1.0000000180025095e-35 3749.7500000000005 4207.6400000000003 1342.5000000000002 1706.5000000000002 17.500000000000004 3328.2200000000007 4923.7800000000016 3342.9400000000001 3346.0650000000005 3783.5650000000005 4942.0150000000003
decision_type=2 2 2 2 2 2 2 2 2 2 2 2 2 2 2 2 2 2 2 2 2 2 2 2 2 2 2 2 2 2
left_child=2 6 -1 4 5 -4 -2 11 -5 -6 25 -3 13 -8 -13 -16 20 -7 -10 -20 -17 -11 23 -23 -19 -9 -24 -28 -21 -27
right_child=1 7 3 8 9 17 12 10 18 21 -12 14 -14 -15 15 16 -18 24 19 28 -22 22 26 -25 -26 29 27 -29 -30 -31
leaf_value=-0.88071723348038955 -0.87280092731015357 -0.86833580293441925 -0.87826465066659531 -0.87024761121299965 -0.88190241681907167 -0.86398309230077819 -0.86734978303395738 -0.86182897934413805 -0.86961533287400061 -0.87257042756513925 -0.85127771414713682 -0.85220675636574073 -0.87100821762350267 -0.84799033398900003 -0.87514756559219276 -0.8712255126182733 -0.86472993431005551 -0.87245804610624411 -0.85469827867926929 -0.89674271772006442 -0.89000916388134699 -0.87866844162666513 -0.88826826353523358 -0.88713442265864861 -0.87696733328846288 -0.87842190418634591 -0.8499228609116728 -0.87631030218408956 -0.87709486498975497 -0.86663135923353785
leaf_weight=643.27229341864586 1406.2231530547142 2374.5978931188583 837.7499635219574 390.77970859408379 332.03504651784897 46.703830718994141 93.772535115480423 150.69282880425453 85.015566855669022 130.62477654218674 21.527546972036362 12.040831357240675 138.28712376952171 28.460146844387054 212.72135397791862 445.87563389539719 152.51719719171524 888.83227837085724 8.0272209048271161 8.7569682598113996 10.581336647272108 232.78940623998642 20.797799617052078 78.447840660810471 211.6267329454422 25.176283746957779 13.1354523897171 305.76414173841476 301.75053128600121 374.36039310693741
leaf_count=1763 3854 6508 2296 1071 910 128 257 413 233 358 59 33 379 78 583 1222 418 2436 22 24 29 638 57 215 580 69 36 838 827 1026
internal_value=-0.872666 -0.869523 -0.876439 -0.875732 -0.876454 -0.87519 -0.871922 -0.868466 -0.872916 -0.878707 -0.865307 -0.869029 -0.867177 -0.862842 -0.871002 -0.871277 -0.869925 -0.872945 -0.8755 -0.877071 -0.871661 -0.877349 -0.878308 -0.880802 -0.873325 -0.865856 -0.876022 -0.875223 -0.877649 -0.867374
internal_weight=9982.94 5446.83 4536.11 3892.84 3098.51 1984.91 1666.74 3780.09 794.33 1113.59 571.757 3208.33 260.52 122.233 833.736 821.696 608.974 1147.16 403.55 318.535 456.457 781.559 650.935 311.237 1100.46 550.23 339.697 318.9 310.507 399.537
internal_count=27360 14928 12432 10669 8492 5440 4568 10360 2177 3052 1567 8793 714 335 2285 2252 1669 3144 1106 873 1251 2142 1784 853 3016 1508 931 874 851 1095
is_linear=0
shrinkage=1


Tree=3
num_leaves=31
num_cat=0
split_feature=4 4 4 2 8 8 4 4 8 3 0 3 3 1 4 2 1 4 8 4 3 4 2 3 1 0 4 4 4 2
split_gain=44.3788 13.59 13.3202 11.0281 9.36514 6.81646 6.29584 6.04626 5.75062 5.63173 4.76862 4.89931 6.71692 5.24835 5.34477 4.48319 4.41072 5.03122 6.50952 4.88458 4.3779 4.20564 4.23939 4.16166 4.54997 4.54154 4.14249 6.25837 3.39981 3.35613
threshold=1731.5000000000002 3453.5000000000005 991.50000000000011 4997.5500000000002 15.500000000000002 13.500000000000002 1205.5000000000002 9657.5000000000018 1.5000000000000002 2913.8250000000003 2898.3300000000004 3363.8250000000003 3373.8650000000002 3358.1100000000001 4739.5000000000009 2906.5450000000005 3033.3250000000003 2805.5000000000005 5.5000000000000009 2823.5000000000005 3952.4100000000003 381.50000000000006 4207.505000000001 5178.4150000000009 3752.1650000000004 3992.3950000000004 1342.5000000000002 1658.5000000000002 1525.5000000000002 3467.6250000000005
decision_type=2 2 2 2 2 2 2 2 2 2 2 2 2 2 2 2 2 2 2 2 2 2 2 2 2 2 2 2 2 2
left_child=2 16 21 4 5 8 -7 10 -4 15 -3 13 -13 -12 -15 28 -2 18 23 -19 -14 -1 -23 24 -18 -26 -5 -28 -10 -11
right_child=1 7 3 26 -6 6 -8 -9 9 29 11 12 20 14 -16 -17 17 19 -20 -21 -22 22 -24 -25 25 -27 27 -29 -30 -31
leaf_value=-0.012531255861616788 -0.0015426176934520747 -0.0023834080634968021 -0.0081179891303189578 0.032506307378905558 -0.0054125827915231847 0.022285798556881054 0.0032100745146370381 0.0154943255692041 -0.00093572071939725132 0.0011879559218515414 0.0050614973599435627 -0.013645227695277881 -0.0001231006185416959 0.0075682143479778646 0.03378497559291993 -0.017177075622582274 0.0074443135209969896 -0.012271195079522347 0.00080480019836148462 -0.00055728393178634122 0.0035132817005478797 -0.0048952610336339781 -0.016801159698541807 0.024435838203934482 -0.0091954687440784794 0.0031104883085789335 -0.0015935561569210585 0.030534372449318462 -0.0091157291548808212 -0.0027560668329142078
leaf_weight=77.257320672273636 893.93066790699959 142.11146324872971 101.41261851787567 9.2302742004394513 505.64119616150856 19.16852530837059 82.983904033899307 35.079883068799973 146.02934435009956 803.36155101656914 519.41362947225571 22.86005163192749 380.79081386327744 17.320381671190265 11.744038730859755 23.994418829679489 222.42641213536263 33.163377910852432 1774.8392350673676 944.12301075458527 1369.9491910934448 907.51550847291946 27.739400267601013 9.5328483283519727 31.379248291254044 192.99406147003174 16.617617249488834 8.1247684061527234 66.577349901199341 256.07398143410683
leaf_count=220 2535 403 288 26 1435 54 235 99 414 2276 1470 65 1079 49 33 68 630 94 5029 2676 3879 2576 79 27 89 547 47 23 189 726
internal_value=4.18318e-07 0.0013834 -0.00299132 -0.00159472 -0.00188188 -0.000691379 0.00678956 0.00312728 -0.00123823 -0.0006999 0.00295122 0.0032777 0.0025114 0.00575569 0.0181616 -0.00488458 0.000320987 0.000840219 0.00162646 -0.000954785 0.00272236 -0.00580409 -0.00524839 0.00482217 0.0044037 0.00138947 0.0153549 0.00895644 -0.00349727 0.000234654
internal_weight=9653.39 6601.66 3051.73 2039.22 2005.24 1499.6 102.152 2499.27 1397.45 1296.04 2464.19 2322.08 1773.6 548.478 29.0644 236.601 4102.39 3208.46 2231.17 977.286 1750.74 1012.51 935.255 456.333 446.8 224.373 33.9727 24.7424 212.607 1059.44
internal_count=27360 18704 8656 5781 5685 4250 289 7077 3961 3673 6978 6575 5023 1552 82 671 11627 9092 6322 2770 4958 2875 2655 1293 1266 636 96 70 603 3002
is_linear=0
shrinkage=0.03


Tree=4
num_leaves=31
num_cat=0
split_feature=4 4 4 8 3 0 4 4 2 1 2 0 3 8 2 0 0 1 8 4 3 0 5 2 4 4 8 0 1 1
split_gain=407.517 89.0925 77.4692 30.202 25.6215 18.5501 16.2976 13.1804 10.6514 14.8294 12.9365 9.79237 8.20962 7.49314 5.95452 7.41993 9.36194 6.11057 6.27807 5.843 5.67092 5.58485 5.42647 5.2863 5.06524 5.00472 4.70507 5.35622 4.68492 4.56454
threshold=2020.5000000000002 1039.5000000000002 3239.5000000000005 18.500000000000004 2881.3150000000005 4659.7900000000009 381.50000000000006 4471.5000000000009 3747.3250000000003 3338.1050000000005 3033.4600000000005 2911.7750000000005 4517.8350000000009 13.500000000000002 4997.5500000000002 3362.0250000000005 3096.2550000000006 3288.0900000000006 17.500000000000004 811.50000000000011 3368.9150000000004 3343.0450000000005 1.0000000180025095e-35 3281.3650000000002 1731.5000000000002 1525.5000000000002 20.500000000000004 5060.9800000000005 3369.3150000000005 4368.0100000000011
decision_type=2 2 2 2 2 2 2 2 2 2 2 2 2 2 2 2 2 2 2 2 2 2 2 2 2 2 2 2 2 2
left_child=1 6 5 4 13 11 21 12 9 10 -5 -2 -4 24 15 16 -6 -18 -19 -8 28 -1 -13 -12 25 -3 27 -14 -17 -9
right_child=2 3 7 8 14 -7 19 29 -10 -11 23 22 26 -15 -16 20 17 18 -20 -21 -22 -23 -24 -25 -26 -27 -28 -29 -30 -31
leaf_value=0.038393927711449997 0.0042301956414413288 0.014153305268860886 -0.0068516435328225198 0.016915611344298052 0.0052552384720197728 -0.010110550074757916 0.018496416122905469 -0.012073190160441312 0.0011457389991992091 0.021896389427976243 -0.0044156828872448078 -0.0045069372901893464 -0.019110132503903466 -0.0087523054855338442 -0.010160831337500413 0.01063049743037491 -0.0085929759035182456 -0.0011207691872667613 0.019832991403402868 0.013115323948232458 0.0039492074406013485 0.015951876739419557 -0.00063554566854612954 0.0078269837373785272 0.0077036555816367147 0.026882169700808874 -0.0021984179078833135 -0.008475530703199818 0.036816540472094011 -0.017301901457475947
leaf_weight=41.86378887295723 272.6795571744442 84.597175166010857 820.23583215475082 120.29370459914207 224.90706194937229 226.92664204537868 409.39319169521332 713.15802219510078 68.497930616140366 138.04260770976543 49.308748602867126 497.01500056684017 116.85078212618828 12.854562029242514 36.248622015118599 30.156420543789864 103.79386721551418 385.09581583738327 13.3139161914587 326.40333092212677 522.81148955225945 13.103803291916845 946.22646090388298 89.102196976542473 59.302867650985718 41.406769499182701 28.840874508023262 67.101489052176476 7.7239432930946341 190.37411473691463
leaf_count=167 1117 344 3391 488 920 940 1657 2961 281 558 203 2049 486 53 150 123 429 1583 54 1327 2142 53 3891 364 242 167 119 279 31 791
internal_value=-1.13335e-06 0.00876955 -0.00628222 0.00538085 0.00333632 -0.0020497 0.0172865 -0.0105285 0.0120703 0.0139564 0.00971962 -0.000983669 -0.00821383 0.013397 0.00183061 0.00216814 0.000168466 -0.0021096 -0.000420544 0.0161093 0.00476133 0.0330439 -0.00196875 0.00346555 0.0149335 0.0183362 -0.0134645 -0.0152309 0.0159699 -0.0131749
internal_weight=6657.63 2778.22 3879.41 1987.46 1522.21 1942.85 790.764 1936.56 465.245 396.747 258.705 1715.92 1033.03 198.161 1324.05 1287.8 727.111 502.204 398.41 735.797 560.692 54.9676 1443.24 138.411 185.307 126.004 212.793 183.952 37.8804 903.532
internal_count=27360 11336 16024 8132 6238 7997 3204 8027 1894 1613 1055 7057 4275 806 5432 5282 2986 2066 1637 2984 2296 220 5940 567 753 511 884 765 154 3752
is_linear=0
shrinkage=0.03


Tree=5
num_leaves=31
num_cat=0
split_feature=4 4 4 0 3 0 2 1 8 4 4 8 3 2 0 4 0 8 5 0 3 4 4 8 3 6 2 8 8 4
split_gain=124.099 14.5534 14.4362 8.34914 9.31605 14.4174 7.30927 7.00188 5.85008 5.18241 4.67237 4.66835 4.65561 5.57499 4.58292 4.56948 5.82307 4.08931 3.95892 4.39088 3.90519 3.80283 3.96146 4.41661 3.68385 3.57642 4.82637 4.16965 5.11673 4.28013
threshold=2161.5000000000005 2805.5000000000005 791.50000000000011 3713.2300000000005 3337.9550000000004 2956.7450000000003 4432.1050000000005 4697.6450000000013 8.5000000000000018 1188.5000000000002 6210.5000000000009 17.500000000000004 4958.7300000000005 4804.7750000000005 2689.3100000000009 3307.5000000000005 4214.6000000000013 1.5000000000000002 1.0000000180025095e-35 3749.7500000000005 4207.6400000000003 1342.5000000000002 1706.5000000000002 17.500000000000004 3328.2200000000007 1.0000000180025095e-35 2931.4250000000006 18.500000000000004 13.500000000000002 2046.5000000000002
decision_type=2 2 2 2 2 2 2 2 2 2 2 2 2 2 2 2 2 2 2 2 2 2 2 2 2 2 2 2 2 2
left_child=2 6 -1 4 5 25 -2 11 -5 -6 -9 -3 13 -8 -13 -16 20 -7 -10 -20 -17 -11 23 -23 -19 26 27 28 -4 -30
right_child=1 7 3 8 9 17 12 10 18 21 -12 14 -14 -15 15 16 -18 24 19 -21 -22 22 -24 -25 -26 -27 -28 -29 29 -31
leaf_value=-0.0078356662459214948 -0.0001405324886772079 0.0042118792701946435 -0.0029796794358099531 0.0023792100380968548 -0.0090253183464583213 0.0084178920484870145 0.0051930923362385091 0.0065984055690158231 0.0029782558422468278 0.00012383335885022195 0.020818617777025341 0.019944648466757371 0.0011921090486368242 0.018494621931945406 -0.0024524540055153969 0.0013855682989894907 0.0077252093372810991 0.00020964843733572606 0.017567310088497018 -0.0048750672879040299 -0.017078028036917242 -0.0058598660703116793 -0.0032454939178206271 -0.014102782033432154 -0.0041961411450822123 -0.0089539123701835848 -0.011614562150698211 -0.008228380351147143 0.014653946498997745 -0.0107624023438823
leaf_weight=642.02976128458977 1406.282908976078 2376.8003976643085 404.08339038491249 390.90063735842705 331.3996889591217 46.796617120504379 93.862461745738983 551.12255749106407 85.064273357391357 130.59376984834671 21.610867530107498 12.083292841911314 126.34614998102188 40.635708779096603 212.66851750016212 446.07161405682564 152.7617569565773 888.81575950980186 8.0497368276119214 310.2153996527195 10.553765147924421 232.49826899170876 339.37232866883278 78.171582758426666 211.4346906542778 199.31916320323944 72.887736409902573 125.71287959814072 26.976363003253937 7.6553295850753775
leaf_count=1763 3854 6508 1109 1071 910 128 257 1508 233 358 59 33 346 111 583 1222 418 2436 22 851 29 638 931 215 580 547 200 345 74 21
internal_value=3.51498e-07 0.0030503 -0.00366795 -0.00298008 -0.00368406 -0.00245186 0.000714983 0.00407927 -0.000236117 -0.00588209 0.00713497 0.00353422 0.0053273 0.00921186 0.0016033 0.00133371 0.00265503 -0.000267593 -0.00277085 -0.00430744 0.000958828 -0.00454771 -0.00548622 -0.00793397 -0.00063701 -0.00544655 -0.00434964 -0.00341148 -0.0020312 0.00903567
internal_weight=9982.78 5450.8 4531.98 3889.95 3095.72 1983.68 1667.13 3783.67 794.23 1112.04 572.733 3210.94 260.844 134.498 834.139 822.056 609.387 1147.05 403.329 318.265 456.625 780.636 650.042 310.67 1100.25 836.635 637.316 564.428 438.715 34.6317
internal_count=27360 14928 12432 10669 8492 5440 4568 10360 2177 3052 1567 8793 714 368 2285 2252 1669 3144 1106 873 1251 2142 1784 853 3016 2296 1749 1549 1204 95
is_linear=0
shrinkage=0.03


Tree=6
num_leaves=31
num_cat=0
split_feature=4 4 2 4 4 1 4 8 8 2 4 1 8 2 0 3 3 1 4 3 4 2 6 1 1 8 2 0 2 1
split_gain=42.3993 16.8096 9.60932 6.24614 5.7559 5.41564 5.67538 5.07011 6.72219 4.94568 4.93488 4.66609 8.51501 5.56303 4.55585 4.69121 6.46366 5.0091 5.05021 4.21099 3.97946 3.89113 3.54997 3.63516 4.61791 3.48623 4.94553 3.57672 6.61836 3.29784
threshold=1408.5000000000002 3453.5000000000005 4997.5500000000002 991.50000000000011 9657.5000000000018 3033.3250000000003 1421.5000000000002 15.500000000000002 13.500000000000002 2714.9750000000004 1205.5000000000002 3415.7500000000005 19.500000000000004 3981.7800000000002 2898.3300000000004 3363.8250000000003 3373.8650000000002 3358.1100000000001 4739.5000000000009 3952.4100000000003 381.50000000000006 4207.505000000001 1.0000000180025095e-35 3389.6550000000002 3385.8100000000009 1.5000000000000002 3313.5150000000008 4753.4000000000005 4410.7300000000005 4148.6800000000012
decision_type=2 2 2 2 2 2 2 2 2 2 2 2 2 2 2 2 2 2 2 2 2 2 2 2 2 2 2 2 2 2
left_child=2 5 3 20 14 6 -2 8 25 -9 -10 12 22 -13 -3 17 -17 -16 -19 -18 -1 -22 -7 24 -24 26 -5 28 -27 -21
right_child=1 4 -4 7 -6 11 -8 9 10 -11 -12 13 -14 -15 15 16 19 18 -20 29 21 -23 23 -25 -26 27 -28 -29 -30 -31
leaf_value=-0.012217027892610076 0.018443709800135929 -0.0023367419333096356 0.021693404228975015 -0.020987768007155756 0.015093767722126453 0.001783934981448861 -0.0019634325024356497 -0.026107379575845219 0.02169721318537535 -0.0051014034573480119 0.0011815765383088673 -0.0027465559009990947 -0.0032986707745965979 0.00060794851342354313 0.0049421639911079417 -0.013427574236256793 -0.00013603924419632277 0.0074082121653648745 0.032825310681432844 0.005563300095190014 -0.0047805684221438882 -0.016287028081558772 0.0051589511638234333 0.019038631311049079 -0.014989428347172552 -0.0012631491128066545 -0.0031398250236214791 -0.017181439078089191 0.02027334401995088 0.0024152643247915316
leaf_weight=76.887490481138229 12.396881341934202 142.02744808793068 13.208657592535017 19.568420499563217 35.217899471521378 1090.0427515208721 1154.3262567520142 10.506147801876066 19.270556628704071 253.1388832628727 23.324684262275696 617.39598962664604 255.10542112588882 1592.8389942348003 520.11257681250572 22.784436166286469 380.85032910108566 17.350662142038349 11.834329843521116 441.9085741341114 906.14341101050377 27.245849817991257 339.75619721412659 16.315132319927216 10.555899620056151 639.3984797000885 48.862465560436249 12.266907155513762 13.105533897876738 929.35593938827515
leaf_count=220 35 403 37 56 99 3086 3276 30 54 720 66 1751 724 4514 1470 65 1079 49 33 1249 2576 78 961 46 30 1812 139 35 37 2630
internal_value=1.07466e-06 0.00103761 -0.00381266 -0.00397703 0.00305125 4.77697e-05 -0.0017466 -0.00234435 -0.00112293 -0.00593848 0.0104631 0.00058156 0.00175738 -0.000329082 0.00287929 0.00319803 0.00244823 0.00562079 0.0177147 0.00265468 -0.00565684 -0.00511644 0.00264284 0.00519649 0.00455182 -0.00179602 -0.0082436 -0.00113231 -0.000830589 0.00342976
internal_weight=9653.1 7590.18 2062.93 2049.72 2501.44 5088.73 1166.72 1039.44 775.797 263.645 42.5952 3922.01 1711.78 2210.23 2466.22 2324.2 1774.9 549.298 29.185 1752.11 1010.28 933.389 1456.67 366.627 350.312 733.202 68.4309 664.771 652.504 1371.26
internal_count=27360 21500 5860 5823 7077 14423 3311 2949 2199 750 120 11112 4847 6265 6978 6575 5023 1552 82 4958 2874 2654 4123 1037 991 2079 195 1884 1849 3879
is_linear=0
shrinkage=0.03


Tree=7
num_leaves=31
num_cat=0
split_feature=4 4 4 8 3 0 4 4 2 1 2 0 3 8 5 2 0 0 1 8 3 4 0 2 4 4 0 1 4 4
split_gain=385.193 82.3445 74.5406 28.1672 24.0692 19.3734 14.7344 12.0854 9.9579 13.721 12.009 8.89817 7.08669 6.99816 6.06897 5.66247 7.06553 8.86569 5.86574 5.91664 5.35044 5.31618 5.07417 5.03855 4.7098 4.54133 4.50327 4.47501 4.47338 4.64932
threshold=2020.5000000000002 1039.5000000000002 3286.5000000000005 18.500000000000004 2881.3150000000005 4659.7900000000009 381.50000000000006 4471.5000000000009 3747.3250000000003 3338.1050000000005 3033.4600000000005 2911.7750000000005 4517.8350000000009 13.500000000000002 1.0000000180025095e-35 4997.5500000000002 3362.0250000000005 3096.2550000000006 3288.0900000000006 17.500000000000004 3368.9150000000004 811.50000000000011 3343.0450000000005 3281.3650000000002 1731.5000000000002 1525.5000000000002 3339.5250000000005 4368.0100000000011 1744.5000000000002 1838.5000000000002
decision_type=2 2 2 2 2 2 2 2 2 2 2 2 2 2 2 2 2 2 2 2 2 2 2 2 2 2 2 2 2 2
left_child=1 6 5 4 13 11 22 12 9 10 28 -2 -4 24 -13 16 17 -6 -19 -20 -18 -8 -1 -12 25 -3 -21 -9 -5 -30
right_child=2 3 7 8 15 -7 21 27 -10 -11 23 14 -14 -15 -16 -17 20 18 19 26 -22 -23 -24 -25 -26 -27 -28 -29 29 -31
leaf_value=0.036396491252898427 0.0039018971624801618 0.013673400280641316 -0.0068338340690517049 0.020816280566725669 0.0050820213147821491 -0.010220516360796598 0.017736080349560007 -0.011872734102878677 0.0010779528360242204 0.021011624497370401 -0.0043679385633598562 -0.0045998650657339381 -0.013154044698057239 -0.0085646854325531936 -0.00055737362893012966 -0.0099708547306020471 0.015452452219793328 -0.0084495418676341413 -0.0011088115958277861 0.032953029000019084 0.0038335184636770036 0.012634229338965597 0.015196958710257006 0.0075780288384125474 0.0074412507887434386 0.025700394160121459 -0.0025772732529635912 -0.017083064731555461 -0.0049271423947011544 0.015374705036420414
leaf_weight=43.031101554632187 277.59518304467201 85.444229334592819 773.82191768288612 74.678936764597893 225.90387061238289 233.71999807655811 415.3536267131567 706.48292185366154 68.63050140440464 140.24004939198494 49.228387027978897 510.19079375267029 201.18132710456848 12.757850632071493 969.17742021381855 35.95431624352932 38.272967204451561 103.19922783970833 384.95382589101791 8.2340864539146406 524.41343873739243 329.75053396821022 13.302773445844648 89.63517040014267 59.677663341164589 42.216992408037186 5.2622806131839743 187.79097381234169 14.780132770538328 32.423044979572296
leaf_count=167 1134 344 3218 298 920 976 1657 2961 281 558 203 2110 845 53 3989 150 154 429 1583 33 2142 1327 53 364 242 167 21 791 60 130
internal_value=-2.75505e-06 0.008474 -0.00614593 0.0052124 0.00323554 -0.00210611 0.0165967 -0.0104481 0.0116374 0.0134446 0.00937481 -0.00102669 -0.00813794 0.0129343 -0.00195151 0.00177218 0.00209942 0.000147064 -0.00207526 -0.000424308 0.00462382 0.0154782 0.0313904 0.00334308 0.0143984 0.0176507 0.0190996 -0.0129669 0.0162469 0.00901784
internal_weight=6657.31 2797.35 3859.96 1995.91 1526.29 1990.68 801.438 1869.28 469.616 400.986 260.746 1756.96 975.003 200.097 1479.37 1326.19 1290.24 727.553 501.649 398.45 562.686 745.104 56.3339 138.864 187.339 127.661 13.4964 894.274 121.882 47.2032
internal_count=27360 11336 16024 8132 6238 8209 3204 7815 1894 1613 1055 7233 4063 806 6099 5432 5282 2986 2066 1637 2296 2984 220 567 753 511 54 3752 488 190
is_linear=0
shrinkage=0.03


Tree=8
num_leaves=31
num_cat=0
split_feature=4 4 4 1 2 1 3 0 0 8 3 0 0 2 8 4 0 4 0 3 3 0 0 4 4 4 0 1 4 8
split_gain=117.112 13.6684 13.6578 7.69152 6.93841 6.56862 6.45756 13.3125 7.92374 5.37682 5.06813 4.86063 4.53895 8.2915 4.46441 4.45776 4.38536 4.38255 5.57692 3.75581 3.54672 3.49424 3.47838 3.42905 3.20955 5.78525 3.20667 3.18501 4.18223 3.13749
threshold=2161.5000000000005 811.50000000000011 2805.5000000000005 2873.5350000000003 4432.1050000000005 4697.6450000000013 3328.2200000000007 3713.2300000000005 3096.2550000000006 8.5000000000000018 2866.4600000000005 4301.8850000000011 4923.7900000000018 4804.7750000000005 17.500000000000004 6210.5000000000009 2689.3100000000009 3307.5000000000005 4214.6000000000013 4207.6400000000003 4923.7800000000016 4942.0150000000003 4123.2250000000013 1172.5000000000002 2073.5000000000005 2046.5000000000002 4048.6250000000005 4305.8350000000009 3666.5000000000005 22.500000000000004
decision_type=2 2 2 2 2 2 2 2 2 2 2 2 2 2 2 2 2 2 2 2 2 2 2 2 2 2 2 2 2 2
left_child=1 11 4 10 -2 14 8 23 -5 -9 24 -1 13 -6 -4 20 -16 -18 19 -19 -7 -22 26 29 25 -3 -11 -20 -29 -8
right_child=2 3 5 6 12 15 7 9 -10 22 -12 -13 -14 -15 16 -17 17 18 27 -21 21 -23 -24 -25 -26 -27 -28 28 -30 -31
leaf_value=-0.0078020991110609545 -0.00013503629023937732 -0.0055906369348298034 0.0040917921626629893 -0.003296297048239724 0.0050837083183116636 0.010303993580143219 -0.0084085026229507309 0.002187715967074916 0.0014311383062356291 -0.00083032068204799995 -0.01895828417521182 0.012360662700002514 0.0014683125991562097 0.023514327757042562 0.019454500028909506 0.020255710410499981 -0.0024310791119048617 0.0013281700295808352 0.014554818801031389 -0.016803816633994294 -0.0058998688756620107 0.005638519632852986 -0.0043237587176415213 -0.0042823895837299283 -0.015395852533773402 0.017708689231971744 0.012107614594443412 0.014756516238214839 0.0014314675628874375 0.0024996226432807312
leaf_weight=671.33343261480331 1406.2177982330322 394.39631807804108 2379.0030736625195 582.11966758966446 93.941365391016006 151.28018608689308 351.96875494718552 388.49032205343246 706.21778824925423 72.570130169391632 27.660604894161224 10.935841411352156 138.49525225162506 28.673608839511871 12.121638268232344 21.688441842794418 212.6299267411232 446.27478015422821 42.087308675050735 10.523916363716124 25.207084953784943 375.49196144938469 305.74789047241211 929.73970332741737 28.76259171962738 9.8303798437118513 22.613708049058914 28.547804296016693 82.349603176116943 25.447223573923111
leaf_count=1847 3854 1084 6508 1598 257 413 968 1064 1935 199 76 30 379 78 33 59 583 1222 115 29 69 1026 839 2554 79 27 62 78 225 70
internal_value=7.98067e-07 -0.00356568 0.00296135 -0.0028714 0.000698888 0.0039574 -0.00237646 -0.00340362 -0.000704896 -0.000327495 -0.00650834 -0.00747892 0.00519001 0.00939372 0.00342952 0.00691447 0.00154159 0.00127757 0.00257076 0.000910438 0.00639026 0.00491267 -0.00276466 -0.00526137 -0.005713 -0.00502402 0.00224346 0.00752833 0.00486167 -0.00767302
internal_weight=9982.37 4527.83 5454.53 3845.57 1667.33 3787.21 3384.92 2096.58 1288.34 789.422 460.65 682.269 261.11 122.615 3213.54 573.668 834.535 822.413 609.783 456.799 551.979 400.699 400.932 1307.16 432.989 404.227 95.1838 152.985 110.897 377.416
internal_count=27360 12432 14928 10555 4568 10360 9289 5756 3533 2164 1266 1877 714 335 8793 1567 2285 2252 1669 1251 1508 1095 1100 3592 1190 1111 261 418 303 1038
is_linear=0
shrinkage=0.03


Tree=9
num_leaves=31
num_cat=0
split_feature=4 4 4 2 8 8 4 4 8 3 2 0 3 3 1 4 3 1 4 8 4 3 1 0 4 4 4 2 0 0
split_gain=40.625 12.2423 11.9219 10.1078 8.45389 6.27145 5.67813 5.4838 5.27361 5.14954 4.39444 4.35274 4.49309 6.22003 4.78361 4.77926 4.04989 4.01368 4.63215 6.2454 4.70478 3.92796 4.20487 4.33284 3.77907 5.96642 3.74521 3.88371 3.20957 3.80586
threshold=1731.5000000000002 3453.5000000000005 991.50000000000011 4997.5500000000002 15.500000000000002 13.500000000000002 1205.5000000000002 9657.5000000000018 1.5000000000000002 2913.8250000000003 2906.5450000000005 2898.3300000000004 3363.8250000000003 3373.8650000000002 3358.1100000000001 4739.5000000000009 3952.4100000000003 3033.3250000000003 2805.5000000000005 5.5000000000000009 2823.5000000000005 5178.4150000000009 3752.1650000000004 3992.3950000000004 1342.5000000000002 1658.5000000000002 381.50000000000006 4207.505000000001 3749.7500000000005 4486.3300000000008
decision_type=2 2 2 2 2 2 2 2 2 2 2 2 2 2 2 2 2 2 2 2 2 2 2 2 2 2 2 2 2 2
left_child=2 17 26 4 5 8 -7 11 -4 10 -10 -3 14 -14 -13 -16 -15 -2 19 21 -20 22 -19 -24 -5 -26 -1 -28 -6 -30
right_child=1 7 3 24 28 6 -8 -9 9 -11 -12 12 13 16 15 -17 -18 18 20 -21 -22 -23 23 -25 25 -27 27 -29 29 -31
leaf_value=-0.011911777755850389 -0.0014641525492138472 -0.0022913442807976168 -0.0078186224578805519 0.030882188916133004 -0.0061368661672789159 0.02110013596522366 0.003064244437927952 0.01470944979120173 -0.0033344367968904487 0.00019155195914999929 -0.01690550547398734 0.004825605090215691 -0.013213906740898887 -0.00014855906841926199 0.007251358211738097 0.031918349353688695 0.0033478075442417753 0.0072009792090590432 -0.01203894066791562 0.00075861815204569252 -0.00052377490983404173 0.023679131342337668 -0.0089733268483411649 0.0030621397068861115 -0.0018017056524298948 0.029458248159357887 -0.0046705012357972694 -0.016129007279845922 0.0053543874122881068 -0.01006282946726763
leaf_weight=76.516995251178741 893.04408991336823 141.94513565301895 100.98282182216644 9.3518298566341382 434.72088009119034 19.370874911546707 83.122706770896912 35.34736755490303 212.15353965759277 1059.958767414093 23.892668038606644 520.78972417116165 22.708537817001343 380.9076524078846 17.380048781633381 11.915936321020125 1372.5403158068657 223.01970842480659 33.051503568887711 1775.7882406115532 943.72665056586266 9.599127918481825 31.282013684511185 193.10063397884369 16.6584025323391 8.2001547217369062 904.81498846411705 27.428574800491333 48.919918715953827 20.428372651338577
leaf_count=220 2535 403 288 26 1238 54 235 99 603 3002 68 1470 65 1079 49 33 3879 630 94 5029 2676 27 89 547 47 23 2576 79 139 58
internal_value=1.91473e-06 0.00132358 -0.00286402 -0.00154361 -0.0018197 -0.000689841 0.00647296 0.0029768 -0.00121536 -0.000700841 -0.0047081 0.00280878 0.00311998 0.00238625 0.00548913 0.0172845 0.00258828 0.000314737 0.000809703 0.00156352 -0.000913417 0.00469114 0.00428375 0.00138423 0.0146258 0.00851009 -0.00553133 -0.00500763 -0.00518075 0.000812839
internal_weight=9652.67 6606.15 3046.52 2037.76 2003.55 1499.48 102.494 2503.53 1396.99 1296 236.046 2468.19 2326.24 1776.16 550.086 29.296 1753.45 4102.61 3209.57 2232.79 976.778 457.001 447.402 224.383 34.2104 24.8586 1008.76 932.244 504.069 69.3483
internal_count=27360 18704 8656 5781 5685 4250 289 7077 3961 3673 671 6978 6575 5023 1552 82 4958 11627 9092 6322 2770 1293 1266 636 96 70 2875 2655 1435 197
is_linear=0
shrinkage=0.03


Tree=10
num_leaves=31
num_cat=0
split_feature=4 4 4 8 3 0 4 2 1 2 2 4 0 8 2 0 0 1 8 5 8 3 4 2 0 8 2 1 1 4
split_gain=364.273 76.0959 71.6631 26.4746 22.5504 19.3369 13.3628 9.34434 12.7525 11.2051 9.25515 8.50249 7.59738 6.62954 5.42371 6.73904 8.3918 5.62184 5.62629 5.2217 5.15025 5.04581 4.85488 4.81177 4.63146 4.6026 15.3767 5.11753 7.20489 4.4218
threshold=2020.5000000000002 1039.5000000000002 3504.5000000000005 18.500000000000004 2881.3150000000005 4659.7900000000009 381.50000000000006 3747.3250000000003 3338.1050000000005 3033.4600000000005 2927.2350000000006 4966.5000000000009 4497.5600000000004 13.500000000000002 4997.5500000000002 3362.0250000000005 3096.2550000000006 3288.0900000000006 17.500000000000004 1.0000000180025095e-35 4.5000000000000009 3368.9150000000004 811.50000000000011 3281.3650000000002 3343.0450000000005 8.5000000000000018 2915.3500000000004 2680.3000000000006 2805.7300000000005 1731.5000000000002
decision_type=2 2 2 2 2 2 2 2 2 2 2 2 2 2 2 2 2 2 2 2 2 2 2 2 2 2 2 2 2 2
left_child=1 6 5 4 13 10 24 8 9 -5 25 12 -4 29 15 16 -6 -18 -19 -12 -21 -17 -8 -11 -1 26 -2 -27 -29 -3
right_child=2 3 11 7 14 -7 22 -9 -10 23 19 -13 -14 -15 -16 21 17 18 -20 20 -22 -23 -24 -25 -26 27 -28 28 -30 -31
leaf_value=0.034565456206561158 0.0051955337006372292 0.017006791579873299 -0.007696151895956193 0.015655416693173024 0.0049124250573626127 -0.010047560878496876 0.017017367388291887 0.001024892656943679 0.020222960308830685 -0.0043144105717874389 -0.0047568660422507743 -0.013561840843571423 -0.013942436929269523 -0.0084924295253076213 -0.0098174930311703702 0.014953801709287251 -0.0083041434642989534 -0.0011006789859789234 0.018499780640144271 -0.0063269735408491689 -0.00029647402734990242 0.0037240662645415534 0.012170026601262214 0.0073555090095873254 0.014482781048729567 -0.0096201862540884423 0.051737391022696554 0.0094999530936353202 -0.0013241061212076199 0.0071567963971324944
leaf_weight=44.143294095993042 70.11561219394207 129.24340705573559 782.80897057056427 123.30680556595325 226.8852723389864 268.4628331810236 421.09481357038021 68.734309867024422 142.23973071575165 49.138415530323982 560.87365701794624 618.62081243097782 225.80392649769783 12.72072224318981 35.717923820018768 38.65787747502327 102.59903480112553 384.85623218119144 13.647926539182661 148.84505750238895 887.01313902437687 525.93307746946812 333.02164342999458 90.114733695983887 13.494625478982924 34.738254934549332 7.0292853415012351 88.233560487627983 148.49003227055073 60.087185442447662
leaf_count=167 286 511 3285 488 920 1131 1657 281 558 203 2329 2622 960 53 150 154 429 1583 54 615 3658 2142 1327 364 53 142 29 360 607 242
internal_value=-4.72755e-06 0.00819203 -0.00601329 0.00505304 0.0031349 -0.00250011 0.0159409 0.011252 0.0129886 0.00906938 -0.00145853 -0.0107929 -0.00909454 0.0124722 0.00171458 0.00203325 0.000125607 -0.00204173 -0.000429405 -0.0024254 -0.00116301 0.00449297 0.0148768 0.00323753 0.0298635 0.00297004 0.00943633 0.00113242 0.00271033 0.0138807
internal_weight=6656.67 2815.64 3841.04 2003.88 1530.35 2213.8 811.754 473.534 404.8 262.56 1945.34 1627.23 1008.61 202.051 1328.3 1292.58 727.988 501.103 398.504 1596.73 1035.86 564.591 754.116 139.253 57.6379 348.607 77.1449 271.462 236.724 189.331
internal_count=27360 11336 16024 8132 6238 9157 3204 1894 1613 1055 8026 6867 4245 806 5432 5282 2986 2066 1637 6602 4273 2296 2984 567 220 1424 315 1109 967 753
is_linear=0
shrinkage=0.03


Tree=11
num_leaves=31
num_cat=0
split_feature=4 4 4 0 3 3 2 1 8 4 0 2 0 8 4 0 4 0 0 4 5 0 4 3 3 4 2 0 3 0
split_gain=110.506 12.9589 12.9509 7.50561 8.47451 13.0652 6.56454 6.11994 5.40027 4.86876 4.39386 7.87215 4.37079 4.28038 4.24969 4.19387 4.19102 5.31572 4.03511 4.43058 3.73026 4.20586 3.62623 3.86297 6.31157 5.01426 3.57392 3.70575 3.38929 3.35506
threshold=2161.5000000000005 2805.5000000000005 791.50000000000011 3713.2300000000005 3337.9550000000004 3026.4150000000004 4432.1050000000005 4697.6450000000013 8.5000000000000018 1188.5000000000002 4923.7900000000018 4804.7750000000005 3324.3700000000003 17.500000000000004 6210.5000000000009 2689.3100000000009 3307.5000000000005 4221.3150000000014 4301.8850000000011 3666.5000000000005 1.0000000180025095e-35 3749.7500000000005 1342.5000000000002 3342.9400000000001 3347.2950000000005 1925.5000000000002 3827.6550000000002 3885.2400000000002 4923.7800000000016 4942.0150000000003
decision_type=2 2 2 2 2 2 2 2 2 2 2 2 2 2 2 2 2 2 2 2 2 2 2 2 2 2 2 2 2 2
left_child=2 6 -1 4 5 -4 -2 13 -5 -6 11 -8 -7 -3 28 -15 -17 -18 -19 -20 -10 -22 -11 -24 25 -25 -23 -28 -9 -30
right_child=1 7 3 8 9 12 10 14 20 22 -12 -13 -14 15 -16 16 17 18 19 -21 21 26 23 24 -26 -27 27 -29 29 -31
leaf_value=-0.0074218023605743411 -0.00014031451615238266 0.003983166672886413 -0.0048004323315073479 0.0022978608145258136 -0.0086358461127087824 0.0012995327097236481 0.0049668997872463327 0.010006115360666583 0.0029277063117221368 0.00027553456609284444 0.0013757097635627067 0.022899048124665949 -0.0030927408496294962 0.018978515781814604 0.019700807616271146 -0.0023993472384608405 0.00092509177215201069 0.016459732903431008 0.014793392880545455 0.0011489790871169101 0.01724005246832731 -0.022190132001118835 -0.012881524372436632 0.0013490689361552169 -0.0053105459336235707 0.027276300680434452 0.011483430849514543 -0.0048217674313131486 -0.0058568555804673983 0.0054508356689139323
leaf_weight=639.53201803565025 1406.2752254903316 2380.9576581716537 967.85032069683075 391.14869317412376 330.17055732011795 730.40377435088158 94.024363219738007 151.59252440929413 85.096662759780884 130.42716112732887 138.59589663147926 28.775982141494751 282.87085381150246 12.156770139932631 21.759891867637634 212.57227447628975 464.63559603691101 34.485525846481323 28.987407773733139 82.03194734454155 8.0673431456089002 10.171234190464018 54.100174516439438 28.74687734246254 556.78079062700272 8.7587586641311628 13.119464278221129 286.44161406159401 25.197907984256744 376.00915461778641
leaf_count=1763 3854 6508 2662 1071 910 2001 257 413 233 358 379 78 777 33 59 583 1272 94 79 224 22 28 149 79 1532 24 36 787 69 1026
internal_value=1.30112e-06 0.00287498 -0.00346593 -0.00281459 -0.00348309 -0.00230766 0.000671175 0.00384459 -0.000213054 -0.00558293 0.00503687 0.00916897 7.33635e-05 0.00333506 0.00669648 0.00148671 0.00122825 0.0024921 0.00749595 0.00471157 -0.00265076 -0.00414449 -0.00428867 -0.00520679 -0.00450813 0.0074039 -0.00470148 -0.00410767 0.00618458 0.00474065
internal_weight=9981.74 5458.06 4523.69 3884.15 3090.11 1981.12 1667.67 3790.39 794.045 1108.98 261.396 122.8 1013.27 3215.83 574.559 834.87 822.713 610.14 145.505 111.019 402.896 317.8 778.814 648.387 594.286 37.5056 309.732 299.561 552.8 401.207
internal_count=27360 14928 12432 10669 8492 5440 4568 10360 2177 3052 714 335 2778 8793 1567 2285 2252 1669 397 303 1106 873 2142 1784 1635 103 851 823 1508 1095
is_linear=0
shrinkage=0.03


Tree=12
num_leaves=31
num_cat=0
split_feature=4 4 4 2 8 8 4 4 8 3 2 3 3 3 1 4 3 1 4 8 4 3 1 0 4 4 4 2 4 2
split_gain=38.7441 11.6411 11.3202 9.59052 7.96695 5.95754 5.4146 5.21192 5.03687 4.84651 4.29001 4.18401 4.95313 5.98826 4.34827 4.52673 3.91166 3.8245 4.3287 5.96884 4.53908 3.73186 3.97227 4.17068 3.59433 5.6726 3.53134 3.7403 3.14453 3.14352
threshold=1731.5000000000002 3453.5000000000005 991.50000000000011 4997.5500000000002 15.500000000000002 13.500000000000002 1205.5000000000002 9657.5000000000018 1.5000000000000002 2913.8250000000003 2906.5450000000005 2917.0950000000007 3363.8250000000003 3373.8650000000002 3358.1100000000001 4739.5000000000009 3952.4100000000003 3033.3250000000003 2805.5000000000005 5.5000000000000009 2823.5000000000005 5178.4150000000009 3752.1650000000004 3992.3950000000004 1342.5000000000002 1658.5000000000002 381.50000000000006 4207.505000000001 1525.5000000000002 4001.4250000000006
decision_type=2 2 2 2 2 2 2 2 2 2 2 2 2 2 2 2 2 2 2 2 2 2 2 2 2 2 2 2 2 2
left_child=2 17 26 4 5 8 -7 11 -4 10 28 -3 14 -14 -13 -16 -15 -2 19 21 -20 22 -19 -24 -5 -26 -1 -28 -10 -25
right_child=1 7 3 24 -6 6 -8 -9 9 -11 -12 12 13 16 15 -17 -18 18 20 -21 -22 -23 23 29 25 -27 27 -29 -30 -31
leaf_value=-0.011611432296044874 -0.0014280876665154767 -0.0017481515980576981 -0.0076587472692318422 0.030002614331989703 -0.0050474148547435364 0.020534764547313331 0.002958064547358895 0.014321386854194715 -0.00076760861219430027 0.00016981597881397532 -0.016663351912915552 0.0049853635581744672 -0.013005733660577154 -0.00016497058775573418 0.0070947753243355031 0.031048913431373497 0.0032706206537436405 0.0070089585180338086 -0.011820658233123452 0.00073309762181585363 -0.00049222572951513623 0.023029715290172829 -0.0088166164317593672 0.021683170133770416 -0.0018319285045301445 0.028573292325459455 -0.0045611865437252975 -0.015834953105964049 -0.0086548821929154623 0.0022185337144364648
leaf_weight=76.141958773136139 892.63249182701111 173.77689078450203 100.75195649266243 9.4135564565658552 503.15063044428825 19.462544977664948 83.223257809877396 35.474988788366318 145.72261193394661 1060.2239831387997 23.799154549837112 489.54888379573822 22.633022755384445 380.98265475034714 17.409087717533115 11.990206390619276 1373.7346261739731 223.48268961906433 32.944165647029877 1776.3072426617146 943.35550048947334 9.6541892886161786 31.212198615074158 7.7806274592876425 16.664300382137302 8.2595400214195234 903.48273730278015 27.285510152578354 66.141683489084244 185.45225223898888
leaf_count=220 2535 493 288 26 1435 54 235 99 414 3002 68 1380 65 1079 49 33 3879 630 94 5029 2676 27 89 22 47 23 2576 79 189 525
internal_value=2.92929e-06 0.00129287 -0.00279772 -0.00151135 -0.00178092 -0.00068473 0.00628946 0.00290411 -0.0011975 -0.000695151 -0.00458654 0.00274014 0.0030798 0.00232692 0.00565832 0.0168642 0.00252469 0.000308898 0.000791888 0.00152016 -0.000874491 0.00457551 0.00417776 0.00135871 0.0142092 0.00824409 -0.00539982 -0.00489168 -0.00322993 0.00300229
internal_weight=9652.1 6608.37 3043.72 2036.81 2002.48 1499.33 102.686 2505.55 1396.64 1295.89 235.663 2470.08 2296.3 1777.35 518.948 29.3993 1754.72 4102.82 3210.19 2233.89 976.3 457.582 447.928 224.445 34.3374 24.9238 1006.91 930.768 211.864 193.233
internal_count=27360 18704 8656 5781 5685 4250 289 7077 3961 3673 671 6978 6485 5023 1462 82 4958 11627 9092 6322 2770 1293 1266 636 96 70 2875 2655 603 547
is_linear=0
shrinkage=0.03


Tree=13
num_leaves=31
num_cat=0
split_feature=4 4 4 8 3 0 4 4 8 1 0 3 3 8 3 1 4 1 2 0 0 1 8 3 2 5 3 8 1 0
split_gain=344.406 70.4129 69.172 24.8566 21.1568 16.339 12.2906 12.1598 8.7281 8.9564 8.50224 7.5462 7.48605 6.26774 6.13107 5.44644 5.28082 7.49615 5.15591 6.45402 7.92318 5.38626 5.31582 5.12354 5.19359 4.85037 4.75246 4.71151 5.40322 4.66934
threshold=2020.5000000000002 1039.5000000000002 3239.5000000000005 18.500000000000004 2881.3150000000005 4659.7900000000009 4471.5000000000009 381.50000000000006 22.500000000000004 3338.1050000000005 2911.7750000000005 4517.8350000000009 3113.7150000000006 13.500000000000002 3292.3150000000005 3349.3750000000005 1771.5000000000002 3356.4850000000001 4997.5500000000002 3362.0250000000005 3096.2550000000006 3288.0900000000006 17.500000000000004 3346.0650000000005 3338.4450000000002 1.0000000180025095e-35 3368.9150000000004 20.500000000000004 5068.9600000000009 4486.3300000000008
decision_type=2 2 2 2 2 2 2 2 2 2 2 2 2 2 2 2 2 2 2 2 2 2 2 2 2 2 2 2 2 2
left_child=1 7 5 4 13 10 11 -1 9 12 -2 29 -5 -3 -14 23 17 -17 19 20 -6 -22 -23 24 -11 -12 -21 28 -13 -4
right_child=2 3 6 8 18 -7 -8 -9 -10 15 25 27 14 -15 -16 16 -18 -19 -20 26 21 22 -24 -25 -26 -27 -28 -29 -30 -31
leaf_value=0.028455320582525104 0.003934305165362471 0.013388406866278558 -0.0066998330728638361 0.014332021656496474 0.0047355807239083036 -0.0095577508667814264 -0.012565634169456739 0.014305200445516867 0.0022272545999330743 0.034261186558681843 -0.0042388629563087582 -0.018614036596394622 -0.0063434406791926055 -0.0083977904695386584 0.0084229204538821215 -0.0031164217445833879 0.006982759775085166 0.02398963925562568 -0.0096328367284712578 0.014468583085514873 -0.0081630371942368034 -0.0010943315208805067 0.017845425433560828 0.055104608628115018 0.0043329791729842171 -0.00056633248928831788 0.0036206259198018078 -0.0014303028262760682 -0.0077657208729416784 0.011236135923693652
leaf_weight=58.876265019178391 274.80297031998634 191.25145828723907 793.31219957768917 125.67911876738071 227.91320535540581 221.6041617244482 876.55852876603603 762.80649353563786 86.096334666013718 15.010551005601888 492.45916333794594 112.78614032268524 36.82494555413723 12.672242164611815 80.905752792954445 10.623223185539244 40.620751142501831 67.692279487848282 35.434125289320946 39.037152111530304 102.01936934888363 384.77894173562527 13.816057622432707 5.9418365359306327 7.9997031092643729 944.23958939313889 527.37343303859234 28.144688814878464 65.212694138288498 13.281865835189818
leaf_count=220 1117 753 3335 494 920 940 3752 2984 347 58 2049 486 152 53 325 41 160 263 150 154 429 1583 54 23 31 3891 2142 119 279 56
internal_value=-7.11754e-06 0.00791923 -0.00588256 0.00489673 0.00303659 -0.00189286 -0.00996478 0.0153191 0.010875 0.0127778 -0.000900415 -0.00771365 0.00923998 0.0120346 0.00380416 0.0186006 0.0157601 0.0203128 0.00165735 0.00196629 9.88174e-05 -0.00201215 -0.000437844 0.0302695 0.0238564 -0.00182517 0.00436827 -0.0128361 -0.0146396 -0.00640449
internal_weight=6655.78 2833.37 3822.4 2011.69 1534.3 1933.11 1889.3 821.683 477.394 391.298 1711.5 1012.74 243.41 203.924 117.731 147.888 118.936 78.3155 1330.37 1294.94 728.528 500.614 398.595 28.9521 23.0103 1436.7 566.411 206.144 177.999 806.594
internal_count=27360 11336 16024 8132 6238 7997 8027 3204 1894 1547 7057 4275 971 806 477 576 464 304 5432 5282 2986 2066 1637 112 89 5940 2296 884 765 3391
is_linear=0
shrinkage=0.03


Tree=14
num_leaves=31
num_cat=0
split_feature=4 4 4 0 3 0 2 1 8 4 0 2 8 4 0 4 0 0 3 5 0 4 4 8 3 3 6 2 8 8
split_gain=104.304 12.2544 12.2022 7.184 8.01912 12.4376 6.23434 5.75543 5.16362 4.69415 4.23202 7.48194 4.09436 4.07197 3.99014 4.01863 5.10282 3.9128 3.61548 3.57545 4.04098 3.47302 3.86254 4.09023 3.50998 9.08039 3.45854 4.72216 3.96689 4.83153
threshold=2161.5000000000005 791.50000000000011 2805.5000000000005 3713.2300000000005 3337.9550000000004 2956.7450000000003 4432.1050000000005 4697.6450000000013 8.5000000000000018 1188.5000000000002 4923.7900000000018 4804.7750000000005 17.500000000000004 6210.5000000000009 2689.3100000000009 3307.5000000000005 4214.6000000000013 2984.8000000000006 4207.6400000000003 1.0000000180025095e-35 3749.7500000000005 1342.5000000000002 1706.5000000000002 17.500000000000004 3342.9400000000001 3346.0650000000005 1.0000000180025095e-35 2931.4250000000006 18.500000000000004 13.500000000000002
decision_type=2 2 2 2 2 2 2 2 2 2 2 2 2 2 2 2 2 2 2 2 2 2 2 2 2 2 2 2 2 2
left_child=1 -1 6 4 5 26 -2 12 -5 -6 11 -8 -4 -9 -14 -16 18 -7 -17 -10 -21 -11 23 -23 -24 -26 27 28 29 -3
right_child=2 3 7 8 9 17 10 13 19 21 -12 -13 14 -15 15 16 -18 -19 -20 20 -22 22 24 -25 25 -27 -28 -29 -30 -31
leaf_value=-0.0072214939785725163 -0.00013792921748476971 -0.0026029348920842497 0.0038714717079270547 0.0022638566303360059 -0.0084357624376464758 0.014502279380908966 0.0048587038231270316 0.0059945844983475237 0.0028841668080323525 0.0003033663010862968 0.0013124366012665883 0.022318466900938343 0.018467054061955968 0.019207596428066256 -0.0023748201445063346 0.0012351932442828948 0.0071496597984756624 -0.00042825521382964361 -0.016576088901283148 0.016897766901264738 -0.0045866522223410406 -0.0054888766541802579 -0.014835791043814717 -0.013445330702253349 0.022318202433394812 -0.0031231569678672961 -0.0084925534745133122 -0.011157663975764334 -0.0077361163693128558 0.0090766073033516342
leaf_weight=638.27123126387596 1406.2438178360462 402.72191676497459 2382.9349797964096 391.24936231970787 329.51101163029671 16.021059393882751 94.100072890520096 553.53390845656395 85.125186920166016 130.39534905552864 138.66262885928154 28.865035146474838 12.192139357328413 21.818938583135605 212.52748191356659 446.59521913528442 153.39215949177742 1130.5048970580101 10.498054116964338 8.0850833058357221 309.40220493078232 231.71209940314293 20.636877357959747 77.632806777954102 13.172473311424254 304.35159826278687 198.44704431295395 72.565873146057129 125.13069295883179 34.616943508386612
leaf_count=1763 3854 1109 6508 1071 910 44 257 1508 233 358 379 78 33 59 583 1222 418 3100 29 22 851 638 57 215 36 838 547 200 345 95
internal_value=1.91349e-06 -0.00336933 0.00279179 -0.00273585 -0.00339032 -0.00224689 0.000653199 0.00373205 -0.000190528 -0.00543472 0.0049055 0.00895724 0.00323796 0.00649566 0.00143049 0.00117811 0.00241499 -0.000219622 0.000826122 -0.00257564 -0.00403953 -0.00416351 -0.00506305 -0.00748562 -0.00284692 -0.00206772 -0.00503558 -0.00395528 -0.00302608 -0.00167846
internal_weight=9980.92 4519.55 5461.36 3881.28 3087.42 1980.01 1667.87 3793.49 793.862 1107.41 261.628 122.965 3218.14 575.353 835.205 823.013 610.485 1146.53 457.093 402.612 317.487 777.901 647.506 309.345 338.161 317.524 833.482 635.035 562.47 437.339
internal_count=27360 12432 14928 10669 8492 5440 4568 10360 2177 3052 714 335 8793 1567 2285 2252 1669 3144 1251 1106 873 2142 1784 853 931 874 2296 1749 1549 1204
is_linear=0
shrinkage=0.03


Tree=15
num_leaves=31
num_cat=0
split_feature=4 4 4 2 8 8 4 4 8 3 2 0 3 3 1 4 1 4 8 4 5 4 0 3 6 8 4 4 8 4
split_gain=37.0212 11.0753 10.731 9.1168 7.56171 5.70095 5.16985 4.97492 4.80872 4.57298 4.17679 4.06318 4.14187 5.29718 4.22875 4.42604 4.28203 3.6042 5.1467 4.63162 4.57251 4.54108 4.45886 3.74465 4.21059 3.60706 3.42719 5.39686 3.40647 3.32813
threshold=1731.5000000000002 3428.5000000000005 991.50000000000011 4997.5500000000002 15.500000000000002 13.500000000000002 1205.5000000000002 9657.5000000000018 1.5000000000000002 2913.8250000000003 2906.5450000000005 2898.3300000000004 3363.8250000000003 3952.4100000000003 3299.1200000000003 5638.0000000000009 3354.9400000000001 2805.5000000000005 3.5000000000000004 2768.5000000000005 1.0000000180025095e-35 2823.5000000000005 3346.1850000000004 5072.920000000001 1.0000000180025095e-35 11.500000000000002 1342.5000000000002 1658.5000000000002 9.5000000000000018 381.50000000000006
decision_type=2 2 2 2 2 2 2 2 2 2 2 2 2 2 2 2 2 2 2 2 2 2 2 2 2 2 2 2 2 2
left_child=2 17 29 4 5 8 -7 11 -4 10 -10 -3 14 -14 28 -16 -17 18 20 23 -2 -19 -21 -20 -25 -23 -5 -28 -13 -1
right_child=1 7 3 26 -6 6 -8 -9 9 -11 -12 12 13 -15 15 16 -18 21 19 22 -22 25 -24 24 -26 -27 27 -29 -30 -31
leaf_value=-0.011317568922043377 0.010270819181691926 -0.0022356466198733215 -0.0075020947088951422 0.029189528725069067 -0.0049319921641578892 0.02002488328302043 0.0028797661448465486 0.01395357764439435 -0.0031366169029469846 0.00014868212660926314 -0.016417011341762378 -0.0029583341244648416 -0.00074817099845490809 0.003135718956436496 0.0063566883852423173 0.01188706514647613 0.034171282574743965 -0.01148486927734076 3.1639351988294414e-05 0.017146483029011565 0.0020747537792346364 -0.002579720716620298 0.001865231782282417 0.010335441716944085 -0.0076530711901181383 0.00088630681262728101 -0.0018535730181232668 0.027738380541363968 0.0046098462602227729 -0.0047787365099265016
leaf_weight=75.767096757888794 90.182809829711914 143.91630372405052 100.52212220430374 9.4675328433513624 502.34784495830536 19.541983217000961 83.296263337135315 35.592912793159485 211.59912416338921 1060.4776290357113 23.701280862092972 66.025405675172806 408.54020854830742 1395.9960204362869 168.79803156852722 33.062499463558197 10.140986621379851 37.046838879585266 2519.2040886282921 28.582066625356674 191.02415281534195 527.22523102164268 43.097107082605362 60.296053171157837 14.533884048461912 554.3706748187542 16.668494075536731 8.3130231499671918 282.73862257599831 929.31476879119873
leaf_count=220 255 409 288 26 1435 54 235 99 603 3002 68 186 1158 3939 475 93 28 106 7135 81 540 1498 122 170 41 1573 47 23 796 2655
internal_value=4.11705e-06 0.00126434 -0.00273528 -0.00148315 -0.00174652 -0.000679098 0.00613779 0.00281644 -0.00118117 -0.000690809 -0.00447432 0.00265846 0.00295624 0.00225642 0.00520824 0.00854967 0.0171178 0.000292821 0.000843155 0.000435955 0.00470322 -0.00115696 0.00795863 0.000228086 0.00684161 -0.000803212 0.0138189 0.00799365 0.00317709 -0.00527166
internal_weight=9651.39 6610.37 3041.02 2035.94 2001.49 1499.14 102.838 2544.81 1396.3 1295.78 235.3 2509.22 2365.3 1804.54 560.766 212.002 43.2035 4065.56 2946.92 2665.71 281.207 1118.64 71.6792 2594.03 74.8299 1081.6 34.4491 24.9815 348.764 1005.08
internal_count=27360 18704 8656 5781 5685 4250 289 7183 3961 3673 671 7084 6675 5097 1578 596 121 11521 8344 7549 795 3177 203 7346 211 3071 96 70 982 2875
is_linear=0
shrinkage=0.03


Tree=16
num_leaves=31
num_cat=0
split_feature=4 4 4 8 3 0 4 4 2 1 2 0 3 8 2 0 0 1 8 7 5 1 1 8 1 0 8 5 2 2
split_gain=325.619 66.5306 65.2428 23.2266 19.8982 15.6649 12.0041 11.0893 8.34217 11.1337 9.85489 8.09005 7.33121 5.88519 4.90285 6.1863 7.49919 5.18538 5.0168 4.70343 4.67441 4.63091 8.15031 4.62118 5.34048 4.60629 5.76799 4.85421 4.54177 5.53103
threshold=2020.5000000000002 3239.5000000000005 1039.5000000000002 18.500000000000004 2881.3150000000005 4659.7900000000009 4471.5000000000009 381.50000000000006 3747.3250000000003 3338.1050000000005 3033.4600000000005 2911.7750000000005 4517.8350000000009 13.500000000000002 4997.5500000000002 3362.0250000000005 3096.2550000000006 3288.0900000000006 17.500000000000004 1.0000000180025095e-35 1.0000000180025095e-35 3430.2250000000004 3373.0350000000003 20.500000000000004 5068.9600000000009 2700.4500000000003 6.5000000000000009 1.0000000180025095e-35 4126.3850000000011 4207.505000000001
decision_type=2 2 2 2 2 2 2 2 2 2 2 2 2 2 2 2 2 2 2 2 2 2 2 2 2 2 2 2 2 2
left_child=2 5 7 4 13 11 12 -1 9 10 -5 -2 -3 -4 15 16 -6 -18 -19 -12 28 22 25 24 -14 -9 27 -27 -13 -30
right_child=1 6 3 8 14 -7 -8 21 -10 -11 19 20 23 -15 -16 -17 17 18 -20 -21 -22 -23 -24 -25 -26 26 -28 -29 29 -31
leaf_value=0.02714662182574238 0.0038324471598819971 -0.0062594900398482683 0.012925329311460629 0.014548526112392003 0.0045723772893619856 -0.009381594885576626 -0.012365969470992557 0.023073529637317691 0.00084778884535724008 0.018769722258894853 0.0060990096828957554 -0.0054875918626043317 -0.018419965338741073 -0.0082418808755773416 -0.0094508306308081803 0.0042501653650233407 -0.0080374283975599408 -0.0010841270932589551 0.017209665086371725 -0.0067189786870085755 -0.00054475377276457936 0.0083665027539839652 0.024134392496544498 -0.0013196395024978849 -0.0075812469127286139 0.0044675658090998832 0.01573010167684271 0.012967464037400513 0.01068717882802561 -0.0046086009096574414
leaf_weight=60.061058044433594 275.53859709203243 802.21405386924744 193.08226218819618 126.03651110827923 228.8654287904501 219.92656856775284 867.82827940583229 42.442885428667068 69.080778673291206 146.01665616035461 106.15579484403133 404.5794473439455 111.19888159632683 12.592566087841986 35.155569314956665 568.1374744027853 101.50561036169529 384.65562671422958 13.981947422027586 34.021330028772354 943.62000602483749 120.69954840838909 74.043911293148994 28.045877724885941 64.729585260152817 102.51212573051453 284.0251832306385 147.43954953551292 37.845829173922539 48.598670408129692
leaf_count=220 1117 3391 753 488 920 940 3752 164 281 558 429 1688 486 53 150 2296 429 1583 54 138 3891 467 286 119 279 397 1100 570 158 203
internal_value=-9.83957e-06 -0.00575428 0.00765635 0.00474439 0.00294447 -0.00184497 -0.0097806 0.0147304 0.0104958 0.0121126 0.00846126 -0.00087577 -0.00755074 0.0116294 0.00160373 0.00190333 7.43805e-05 -0.0019839 -0.000442485 0.00298805 -0.00178003 0.0137633 0.0147648 -0.0126291 -0.0144321 0.0135612 0.0128051 0.00948142 -0.00415392 0.00208797
internal_weight=6654.64 3804.13 2850.51 2019.29 1537.98 1930.11 1874.02 831.224 481.311 412.23 266.214 1710.18 1006.19 205.675 1332.3 1297.15 729.009 500.143 398.638 140.177 1434.64 771.163 650.464 203.974 175.928 576.42 533.977 249.952 491.024 86.4445
internal_count=27360 16024 11336 8132 6238 7997 8027 3204 1894 1613 1055 7057 4275 806 5432 5282 2986 2066 1637 567 5940 2984 2517 884 765 2231 2067 967 2049 361
is_linear=0
shrinkage=0.03


Tree=17
num_leaves=31
num_cat=0
split_feature=4 4 4 0 3 3 2 1 8 0 4 0 2 8 5 4 5 0 0 2 0 6 4 4 8 3 3 1 3 0
split_gain=98.4421 11.6726 11.4516 6.85317 7.59957 11.8758 5.9133 5.4374 4.95053 4.59311 4.49993 4.0782 7.11449 3.96096 4.6702 3.90463 3.41862 3.87898 3.45535 3.3571 4.47032 3.33309 3.33178 3.74242 3.89515 3.38463 8.6817 3.27173 3.23046 3.21466
threshold=2161.5000000000005 791.50000000000011 2805.5000000000005 3713.2300000000005 3337.9550000000004 3052.7850000000003 4432.1050000000005 4697.6450000000013 8.5000000000000018 3324.3700000000003 1188.5000000000002 4923.7900000000018 4804.7750000000005 21.500000000000004 1.0000000180025095e-35 6210.5000000000009 1.0000000180025095e-35 3749.7500000000005 3783.5650000000005 2752.5600000000009 2762.8600000000001 1.0000000180025095e-35 1342.5000000000002 1706.5000000000002 17.500000000000004 3342.9400000000001 3346.0650000000005 4883.2800000000007 4923.7800000000016 4942.0150000000003
decision_type=2 2 2 2 2 2 2 2 2 2 2 2 2 2 2 2 2 2 2 2 2 2 2 2 2 2 2 2 2 2
left_child=1 -1 6 4 5 21 -2 13 -5 -7 -6 12 -8 19 -15 28 27 -18 -19 -4 -21 -3 -12 24 -24 -25 -27 -10 -9 -30
right_child=2 3 7 8 10 9 11 15 16 -11 22 -13 -14 14 -16 -17 17 18 -20 20 -22 -23 23 25 -26 26 -28 -29 29 -31
leaf_value=-0.0070385305522848154 -0.0001316679824833067 -0.0034622169211531253 0.0083222247143329431 0.0022315522060656549 -0.0082304223260819039 0.0015752222191280662 0.0047547478608965842 0.0095399037020699236 0.0062922383240596059 -0.0029837174779955853 0.00033160231423342223 0.0012514515852195545 0.021761273740555729 0.0047866716470539679 -0.0068012041023466042 0.018738594122992114 0.016550222662601772 -0.023153588283162187 -0.0039388098039729539 -0.014267436026028962 0.0032369603887388212 -0.0074632442410092767 -0.0053648057297571664 -0.014536975471599366 -0.013140430157573459 0.021825614994856225 -0.0030136680079277311 -0.0071554099442206944 -0.0059626565045145701 0.0051004613106615318
leaf_weight=637.09171959757805 1406.1659247875214 777.82761460542679 117.8412367105484 391.3425255715847 328.81419464945793 671.53835725784302 94.171715766191483 152.05655547976494 63.230901479721069 282.5912076830864 130.3624075949192 138.72556704282761 28.943114519119263 53.382300436496735 75.676218271255493 21.870962500572205 8.1023732423782331 8.6659078598022443 300.41809836030006 13.189162939786909 2960.3096091151237 246.86326479911804 231.44028472900391 20.568369626998901 77.364491283893585 13.214351236820219 304.04145514965057 21.929936438798904 25.220235228538513 376.93800038099289
leaf_count=1763 3854 2143 321 1071 910 1839 257 413 173 777 358 379 78 146 207 59 22 24 827 36 8083 681 638 57 215 36 838 60 69 1026
internal_value=2.57957e-06 -0.00327516 0.00271104 -0.00265695 -0.00329664 -0.0021835 0.000639124 0.00362134 -0.000170839 0.000224969 -0.00528859 0.00477852 0.00875282 0.00314115 -0.00200813 0.00630568 -0.00250752 -0.0039404 -0.00447754 0.00335613 0.00315932 -0.00442612 -0.00404364 -0.00492571 -0.00731282 -0.00274365 -0.00197906 0.00282931 0.00581504 0.00440667
internal_weight=9979.9 4515.41 5464.49 3878.32 3084.63 1978.82 1668.01 3796.48 793.69 954.13 1105.81 261.84 123.115 3220.4 129.059 576.086 402.347 317.186 309.084 3091.34 2973.5 1024.69 776.991 646.629 308.805 337.824 317.256 85.1608 554.215 402.158
internal_count=27360 12432 14928 10669 8492 5440 4568 10360 2177 2616 3052 714 335 8793 353 1567 1106 873 851 8440 8119 2824 2142 1784 853 931 874 233 1508 1095
is_linear=0
shrinkage=0.03


Tree=18
num_leaves=31
num_cat=0
split_feature=4 4 2 2 4 1 4 4 1 8 2 3 3 1 0 1 4 2 2 3 0 4 3 1 6 1 1 0 0 0
split_gain=35.402 13.735 7.91894 5.64056 4.74026 4.47413 5.48982 4.37907 4.23137 7.3021 5.67635 3.88067 4.56574 5.15687 4.94229 3.67484 4.45969 3.56369 3.48159 4.02406 4.41489 4.5148 3.35315 3.43762 3.31504 3.48312 4.43193 3.26959 3.22753 3.14313
threshold=1408.5000000000002 3428.5000000000005 4997.5500000000002 2879.0400000000004 9657.5000000000018 3033.3250000000003 1421.5000000000002 991.50000000000011 3415.7500000000005 19.500000000000004 3981.7800000000002 2917.0950000000007 3363.8250000000003 3653.1350000000007 3636.5100000000007 3358.1100000000001 4739.5000000000009 3655.8850000000007 4207.505000000001 4164.7750000000005 4038.6650000000004 381.50000000000006 3391.1000000000008 3385.8100000000009 1.0000000180025095e-35 3389.6550000000002 3385.8100000000009 3686.3000000000006 3389.1500000000001 3053.1900000000005
decision_type=2 2 2 2 2 2 2 2 2 2 2 2 2 2 2 2 2 2 2 2 2 2 2 2 2 2 2 2 2 2
left_child=2 5 3 -1 11 6 -2 18 9 24 -10 -3 15 14 -14 -13 -17 -15 19 20 21 -5 23 -23 -7 26 29 -19 -11 -26
right_child=1 4 -4 7 -6 8 -8 -9 10 28 -12 12 13 17 -16 16 -18 27 -20 -21 -22 22 -24 -25 25 -27 -28 -29 -30 -31
leaf_value=-0.0078478919215571562 0.018249210396791532 -0.0017070507029571121 0.019461931179912191 -0.013080876904712116 0.013600753515158747 0.0016425165855218896 -0.0018040411272359782 -0.0016115808121401286 -0.0027907901670325419 -0.0039305730670053125 0.00061294947024017092 0.0047535886235692939 -0.00064397679406687734 0.019860997071038534 -0.016100917389538089 0.0060319045043786337 0.029632448788367811 -0.011506210739077479 -0.015237945444937416 0.0090932710348405072 -0.018919810399201962 -0.0040981520721129691 0.001233856788402117 -0.017206192512091909 0.019961366024668293 0.018457285802920963 -0.014851951257630168 0.0028157067166112949 0.0097840659821957741 0.004352921659788042
leaf_weight=251.44535121321678 12.419386118650435 175.74199977517128 13.441274553537367 48.690750241279602 35.703167974948883 1083.9304490983486 1149.0395576655865 922.9505400955677 612.7535814344883 237.49058231711388 1572.8150137364864 499.64715120196342 204.79859998822212 10.945746421813963 20.479321360588074 17.815048605203632 12.10098087787628 14.479671478271483 26.742406338453293 19.882562220096588 18.841577649116516 624.87608101963997 108.12480941414833 18.540603369474411 12.039740175008772 16.402867823839188 10.533350437879561 1555.0334629714489 16.517510801553726 326.40042218565941
leaf_count=720 35 499 37 142 99 3064 3268 2623 1739 676 4457 1405 581 31 58 50 33 41 78 57 54 1787 309 53 34 46 30 4386 47 921
internal_value=5.43218e-06 0.000950113 -0.00348943 -0.00364065 0.00274642 4.42868e-05 -0.00158961 -0.0030492 0.00053227 0.00165321 -0.000341335 0.00259209 0.00291562 0.00219727 -0.00204912 0.0053651 0.0155783 0.00280254 -0.00458189 -0.00424222 -0.00456593 -0.00422797 -0.00365441 -0.00447587 0.00247554 0.00494678 0.00431174 0.00268358 -0.00303874 0.00490818
internal_weight=9650.62 7597.09 2053.54 2040.09 2546.75 5050.34 1161.46 1788.65 3888.88 1703.31 2185.57 2511.04 2335.3 1805.74 225.278 529.563 29.916 1580.46 865.699 838.956 819.074 800.232 751.541 643.417 1449.31 365.376 348.974 1569.51 254.008 338.44
internal_count=27360 21500 5860 5823 7183 14317 3303 5103 11014 4818 6196 7084 6585 5097 639 1488 83 4458 2480 2402 2345 2291 2149 1840 4095 1031 985 4427 723 955
is_linear=0
shrinkage=0.03


Tree=19
num_leaves=31
num_cat=0
split_feature=4 4 4 8 3 0 4 2 4 1 8 1 0 3 1 3 8 1 1 4 8 4 2 4 4 8 5 0 1 2
split_gain=307.864 64.1726 60.4758 21.7876 18.7168 17.1208 10.4011 8.09523 8.08759 7.97258 7.88704 7.76769 7.12728 6.50353 6.06281 5.81773 5.57273 4.92597 4.95333 6.40463 4.85232 5.74387 6.87042 8.15227 6.10749 4.66584 10.459 7.32143 7.66652 4.66392
threshold=2020.5000000000002 3504.5000000000005 1039.5000000000002 18.500000000000004 2881.3150000000005 4659.7900000000009 544.50000000000011 2927.2350000000006 4966.5000000000009 2710.0500000000006 22.500000000000004 3338.1050000000005 4497.5600000000004 3113.7150000000006 4168.2350000000015 3292.3150000000005 13.500000000000002 3349.3750000000005 3356.4850000000001 1771.5000000000002 3.5000000000000004 2449.5000000000005 3483.2650000000008 3479.5000000000005 2105.5000000000005 2.5000000000000004 1.0000000180025095e-35 3490.0550000000007 3383.6250000000005 4997.5500000000002
decision_type=2 2 2 2 2 2 2 2 2 2 2 2 2 2 2 2 2 2 2 2 2 2 2 2 2 2 2 2 2 2
left_child=2 5 6 4 16 7 9 -2 12 -1 11 13 -3 -5 -11 -15 -4 -13 -19 -20 -9 24 23 -23 -22 26 -8 28 -27 -6
right_child=1 8 3 10 29 -7 25 20 -10 14 -12 17 -14 15 -16 -17 -18 18 19 -21 21 22 -24 -25 -26 27 -28 -29 -30 -31
leaf_value=0.037258374791434234 0.0027888751976110674 -0.0071964486352921291 0.012484904859182959 0.013325771301822029 0.0018401383116558863 -0.0095072396548858927 -0.00097163623984630884 -0.0076505453858403544 -0.012974979298961272 0.019404275113850681 0.0019461058416624761 0.028188633233405726 -0.013336781850178125 -0.00632673940214933 -0.011147757097157112 0.0080404471890765834 -0.0081450011186138885 -0.0010991866147292083 0.022245867489760335 0.0066918759956935067 -0.0057383928252947285 -0.006495333945782375 -0.00082298740934015375 0.030554964154889699 0.0023823779234320372 0.014344813760198555 0.013753200239022354 0.0047491269768658246 0.029802568478926181 -0.0092749630018985566
leaf_weight=22.652875244617462 350.30275774002075 767.5327360033989 194.84388065338135 128.25428411364555 1299.3619763702154 262.1862683147192 67.824311941862106 136.81456360220909 599.93513238430023 147.75125995278358 86.744067743420601 29.880469173192978 218.58117146790028 36.802092671394348 6.0865077376365653 81.629899173974991 12.543275684118269 15.756938785314558 69.701873898506165 36.2004274725914 103.99342429637909 411.78012791275978 509.77147687971592 5.4151659160852423 419.907973498106 378.35214476287365 120.62662321329117 65.877064555883408 31.262784779071808 34.887784659862518
leaf_count=83 1424 3285 753 494 5282 1131 261 572 2622 552 347 112 960 152 23 325 53 60 263 141 430 1716 2122 23 1739 1451 462 253 119 150
internal_value=-1.2784e-05 -0.0056284 0.00740321 0.00459737 0.00285272 -0.00231233 0.0141691 -0.00133894 -0.0102285 0.0206423 0.0101433 0.0119289 -0.00855751 0.00864495 0.0181955 0.00357592 0.0112372 0.0172747 0.0145941 0.0169291 -0.0022497 -0.00174041 -0.00315947 -0.00601442 0.00077042 0.0124485 0.00845367 0.0140317 0.0155246 0.0015495
internal_weight=6653.26 3786.22 2867.04 2026.61 1541.64 2200.17 840.434 1937.99 1586.05 176.491 484.97 398.226 986.114 246.686 153.838 118.432 207.387 151.54 121.659 105.902 1587.68 1450.87 926.967 417.195 523.901 663.943 188.451 475.492 409.615 1334.25
internal_count=27360 16024 11336 8132 6238 9157 3204 8026 6867 658 1894 1547 4245 971 575 477 806 576 464 404 6602 6030 3861 1739 2169 2546 723 1823 1570 5432
is_linear=0
shrinkage=0.03


Tree=20
num_leaves=31
num_cat=0
split_feature=4 4 4 0 3 0 2 0 8 1 3 8 3 0 0 4 4 3 3 0 4 3 0 4 3 4 1 4 4 7
split_gain=92.9455 11.12 10.7239 6.54053 7.21199 11.229 5.61954 5.1326 4.77169 4.35012 7.71936 4.14371 3.94105 3.82181 3.80339 3.74456 3.5211 4.20632 3.9845 3.73062 3.45138 5.45295 3.34303 5.69384 5.56148 4.13209 3.58375 3.50589 3.36264 3.31107
threshold=2161.5000000000005 791.50000000000011 2805.5000000000005 3713.2300000000005 3337.9550000000004 2956.7450000000003 4432.1050000000005 4677.8550000000005 8.5000000000000018 3345.1750000000006 3348.4900000000002 17.500000000000004 5086.1400000000003 2984.8000000000006 2689.3100000000009 6210.5000000000009 3307.5000000000005 3400.8600000000001 3346.0650000000005 3370.8950000000004 3453.5000000000005 4618.0850000000009 4239.0400000000009 4034.5000000000005 4279.0550000000012 4914.0000000000009 3647.4600000000005 4434.5000000000009 3666.5000000000005 1.0000000180025095e-35
decision_type=2 2 2 2 2 2 2 2 2 2 2 2 2 2 2 2 2 2 2 2 2 2 2 2 2 2 2 2 2 2
left_child=1 -1 6 4 5 -3 -2 11 -5 -6 -11 -4 -8 -7 -13 -9 -16 18 -18 -20 -19 22 23 -22 -24 26 -25 -28 -26 -30
right_child=2 3 7 8 9 13 12 15 -10 10 -12 14 -14 -15 16 -17 17 20 19 -21 21 -23 24 25 28 -27 27 -29 29 -31
leaf_value=-0.0068610137851945674 -0.00012356900068147562 -0.0047761106846531927 0.0036841929043169353 0.0022059508267291378 -0.010277335713698516 0.014344519199666478 0.0065070100112481098 0.0056422686718862565 -0.0024472227279617128 0.0044385876745915128 -0.0052596799780205046 0.017835840188854115 -0.0026740010825891097 -0.00040290338591202605 -0.0023461319401024668 0.018285668828620809 0.00052470355983809793 0.014010233718864751 -0.025641937186039864 -0.0044511315802606595 -0.0056954659979148205 -0.019357954208682748 0.027749528338151065 0.028496379319812797 0.017924763995611305 0.00090909836314594496 0.00068364116072129014 0.013729776674362868 -0.0002082318378234872 0.013038479837906902
leaf_weight=635.92170283198357 1406.068965613842 831.38541820645332 2388.0837167203426 391.41543456912041 131.15049928426743 16.039811700582504 209.36082366108894 553.37042346596718 402.09892529249191 80.528872072696686 892.53838029503822 12.23191326856613 52.664971798658371 1130.2071943283081 212.20733138918877 21.917187422513962 141.90221425890923 27.545004218816757 10.549795389175413 25.670978158712387 68.707475543022156 9.5553532838821393 11.418886989355086 8.062450170516966 16.932815372943878 129.93213585019112 35.8118996322155 38.435227245092392 63.888251692056656 23.130572825670242
leaf_count=1763 3854 2296 6512 1071 363 44 570 1504 1106 222 2467 33 144 3100 582 59 388 75 29 70 188 26 31 22 46 355 98 105 174 63
internal_value=3.27007e-06 -0.00318415 0.00263327 -0.00258081 -0.00320618 -0.00212176 0.000628106 0.00351363 -0.00015196 -0.00514836 -0.00445707 0.00304785 0.0046617 -0.000196538 0.00123008 0.00612395 0.000983499 0.00213889 -0.0017422 -0.0106232 0.00373391 0.00303649 0.00357643 0.00181079 0.0078761 0.00424074 0.00949999 0.00743718 0.00569304 0.00331289
internal_weight=9978.73 4511.29 5467.45 3875.36 3081.85 1977.63 1668.09 3799.35 793.514 1104.22 973.067 3224.07 262.026 1146.25 835.982 575.288 823.75 611.543 178.123 36.2208 433.42 405.875 396.32 280.949 115.371 212.242 82.3096 74.2471 103.952 87.0188
internal_count=27360 12432 14928 10669 8492 5440 4568 10360 2177 3052 2689 8797 714 3144 2285 1563 2252 1670 487 99 1183 1108 1082 768 314 580 225 203 283 237
is_linear=0
shrinkage=0.03


Tree=21
num_leaves=31
num_cat=0
split_feature=4 4 4 2 8 8 4 8 4 3 2 3 3 3 1 4 1 4 8 4 3 1 0 2 3 4 0 3 4 4
split_gain=33.8992 9.94244 9.58478 8.38724 6.96051 5.3688 4.98753 4.55541 4.50326 4.16926 4.12887 3.70824 4.34703 4.98363 3.47492 4.22472 3.37388 3.97231 5.57726 4.15596 3.48073 3.63337 3.99815 3.20044 4.15768 4.44549 4.62871 3.94753 3.15806 5.16347
threshold=1731.5000000000002 3428.5000000000005 991.50000000000011 4997.5500000000002 15.500000000000002 13.500000000000002 1205.5000000000002 1.5000000000000002 9657.5000000000018 2913.8250000000003 2906.5450000000005 2917.0950000000007 3363.8250000000003 3952.4100000000003 3358.1100000000001 4739.5000000000009 3033.3250000000003 2805.5000000000005 5.5000000000000009 2823.5000000000005 5178.4150000000009 3752.1650000000004 3992.3950000000004 4207.505000000001 4164.7750000000005 381.50000000000006 4038.6650000000004 3391.1000000000008 1342.5000000000002 1658.5000000000002
decision_type=2 2 2 2 2 2 2 2 2 2 2 2 2 2 2 2 2 2 2 2 2 2 2 2 2 2 2 2 2 2
left_child=2 16 23 4 5 7 -7 -4 11 10 -9 -3 14 -14 -13 -16 -2 18 20 -19 21 -18 -23 24 25 -1 27 -27 -5 -30
right_child=1 8 3 28 -6 6 -8 9 -10 -11 -12 12 13 -15 15 -17 17 19 -20 -21 -22 22 -24 -25 -26 26 -28 -29 29 -31
leaf_value=-0.01215559779063145 -0.0013433471411543752 -0.0016736286175756906 -0.0073143309034525211 0.027889876412765538 -0.0047494986048645695 0.019556408920773146 0.0027430976063510452 -0.0029635868595517781 0.013243883299408879 0.00012438594384041148 -0.016192165325939353 0.0046394807317461113 -0.0007693583408146541 0.0029968204849707275 0.0058583719460624075 0.028787084167628305 0.0067026112283371294 -0.011391086595233687 0.00067479540868190912 -0.00050928472324217886 0.022141040908459385 -0.0086715423449660808 0.0029101259070592931 -0.015214881040303892 0.0088175376105435865 -0.0048894394051613877 -0.019613285354134244 0.0012391508497807051 -0.0020231556588594288 0.026850569845887368
leaf_weight=72.628109157085419 888.78637906908989 175.66628780961037 100.24102166295052 9.5466794967651349 501.05435574054718 19.611919462680817 83.422825753688812 211.10816490650177 35.81135767698288 1060.7510995566845 23.609588503837585 500.25648337602615 408.63973605632782 1398.1441833376884 17.84682530164719 12.160305559635161 224.20212170481682 32.725735038518906 1777.4331314265728 908.02651917934418 9.7263356149196607 31.145738482475281 193.42867660522461 26.968471258878708 19.946593880653381 756.06740021705627 17.716590017080307 108.11656734347343 16.700457960367206 8.3667387962341291
leaf_count=213 2527 499 288 26 1435 54 235 603 99 3002 68 1405 1158 3939 50 33 630 94 5029 2578 27 89 547 79 57 2166 51 309 47 23
internal_value=6.7965e-06 0.00121145 -0.0026177 -0.00143503 -0.00168845 -0.000665094 0.00594339 -0.00115295 0.00268054 -0.000676192 -0.00429421 0.00252999 0.00284596 0.00214503 0.00523427 0.0151502 0.00029053 0.000747662 0.00143578 -0.000887827 0.00438582 0.00400101 0.00130389 -0.00502029 -0.00473815 -0.00502142 -0.00443389 -0.0041227 0.0132063 0.0076141
internal_weight=9649.86 6614 3035.86 2034.41 1999.8 1498.74 103.035 1395.71 2548.53 1295.47 234.718 2512.71 2337.05 1806.78 530.264 30.0071 4065.47 3176.69 2235.94 940.752 458.503 448.777 224.574 1001.44 974.475 954.529 881.901 864.184 34.6139 25.0672
internal_count=27360 18704 8656 5781 5685 4250 289 3961 7183 3673 671 7084 6585 5097 1488 83 11521 8994 6322 2672 1293 1266 636 2875 2796 2739 2526 2475 96 70
is_linear=0
shrinkage=0.03


Tree=22
num_leaves=31
num_cat=0
split_feature=4 4 4 8 3 0 4 4 2 2 1 2 1 0 1 8 8 4 2 4 4 7 2 0 0 1 8 3 2 8
split_gain=291.278 61.761 56.1674 20.5934 17.5462 16.4363 9.56813 7.92541 7.68452 7.54869 9.72765 8.76595 7.32096 6.95643 5.67143 5.29112 4.68614 5.46351 6.63442 7.77252 5.90438 4.48374 4.45671 5.90033 6.99894 4.93505 4.73464 4.41201 4.38396 4.37828
threshold=2020.5000000000002 3504.5000000000005 1039.5000000000002 18.500000000000004 2881.3150000000005 4659.7900000000009 544.50000000000011 4966.5000000000009 2927.2350000000006 3747.3250000000003 3338.1050000000005 3033.4600000000005 2710.0500000000006 4497.5600000000004 4168.2350000000015 13.500000000000002 3.5000000000000004 2449.5000000000005 3483.2650000000008 3479.5000000000005 2105.5000000000005 1.0000000180025095e-35 4997.5500000000002 3362.0250000000005 3096.2550000000006 3288.0900000000006 17.500000000000004 3368.9150000000004 4952.3550000000005 2.5000000000000004
decision_type=2 2 2 2 2 2 2 2 2 2 2 2 2 2 2 2 2 2 2 2 2 2 2 2 2 2 2 2 2 2
left_child=2 5 6 4 15 8 12 13 -2 10 11 -5 -1 -3 -14 -4 -10 20 19 -19 -18 -13 23 24 -6 -26 -27 -25 -7 -8
right_child=1 7 3 9 22 28 29 -9 16 -11 -12 21 14 -15 -16 -17 17 18 -20 -21 -22 -23 -24 27 25 26 -28 -29 -30 -31
leaf_value=0.035535004723112884 0.0027112762555435263 -0.0070394812955691327 0.012043084882367706 0.013610640737897275 0.0043193286294800669 -0.015313551527469172 0.0081385088022553047 -0.012778868727020363 -0.0075167457606591511 0.000665810241755864 0.017483751100806005 0.0057923003290172911 0.018614191317493613 -0.013135623162667923 -0.011005823375671058 -0.008078592089835173 -0.0056591323644420276 -0.0063708520925665818 -0.00078630836233613147 0.029513796945107938 0.0023335430401971798 -0.0067127538258582959 -0.0091226889896034256 0.013718436765849121 -0.0079230268989936344 -0.0011277133046057515 0.016535330246907155 0.0033422509541667258 -0.0067990296286943915 0.013520577177439024
leaf_weight=23.176446527242661 351.03725589811802 762.79304377734661 196.63075533509254 128.40644279122353 230.35109221935272 77.513095512986183 189.77987435460091 593.77315637469292 136.09985366463661 69.43718259036541 149.45811587572098 106.95951066911221 149.81824481487274 216.22294792532921 6.0529253780841819 12.50974979996681 103.69675846397877 409.87123475968838 509.19228142499924 5.505309745669364 420.47786724567413 34.011103689670563 34.658195212483406 39.632431298494339 101.03945772349834 385.16379173099995 14.160495609045027 531.26788245141506 182.70640245079994 480.34549830853939
leaf_count=83 1424 3285 753 488 920 340 723 2622 572 281 558 429 552 960 23 53 430 1716 2122 23 1739 138 150 154 429 1583 54 2142 791 1823
internal_value=-1.58639e-05 -0.00550637 0.00716212 0.00445624 0.00275936 -0.00225639 0.0136424 -0.0100443 -0.00130485 0.00982699 0.0113458 0.00794027 0.0198031 -0.00838586 0.017464 0.0108395 -0.0021944 -0.00169441 -0.00308158 -0.00589524 0.000752363 0.00277528 0.00149473 0.00177744 -7.91298e-06 -0.00200003 -0.000501362 0.00406258 -0.0093353 0.0119964
internal_weight=6651.75 3768.89 2882.86 2033.69 1545.41 2196.1 849.173 1572.79 1935.88 488.272 418.835 269.377 179.048 979.016 155.871 209.141 1584.84 1448.74 924.569 415.377 524.175 140.971 1336.27 1301.62 730.715 500.364 399.324 570.9 260.219 670.125
internal_count=27360 16024 11336 8132 6238 9157 3204 6867 8026 1894 1613 1055 658 4245 575 806 6602 6030 3861 1739 2169 567 5432 5282 2986 2066 1637 2296 1131 2546
is_linear=0
shrinkage=0.03


Tree=23
num_leaves=31
num_cat=0
split_feature=4 4 4 1 3 0 0 3 3 1 0 3 8 5 4 8 3 5 3 4 4 4 4 2 0 3 0 4 1 1
split_gain=87.7586 10.84 9.49314 6.89469 5.44473 11.3756 6.88233 5.19927 4.90354 4.83137 4.36451 4.00881 3.70581 4.48729 3.59039 3.43995 3.3828 3.18733 3.13843 4.13238 4.09738 3.12037 5.45246 3.10773 4.30586 3.08282 3.0818 3.07196 3.30868 5.97932
threshold=2186.5000000000005 811.50000000000011 2805.5000000000005 2873.5350000000003 3328.2200000000007 3677.1550000000002 3096.2550000000006 4346.9600000000009 2866.4600000000005 4697.6450000000013 4301.8850000000011 4199.6200000000008 21.500000000000004 1.0000000180025095e-35 6210.5000000000009 8.5000000000000018 5086.1400000000003 1.0000000180025095e-35 2888.1250000000005 1232.5000000000002 1986.5000000000002 2073.5000000000005 2046.5000000000002 2752.5600000000009 2762.8600000000001 4923.7800000000016 4942.0150000000003 4393.5000000000009 3299.1200000000003 3405.6750000000006
decision_type=2 2 2 2 2 2 2 2 2 2 2 2 2 2 2 2 2 2 2 2 2 2 2 2 2 2 2 2 2 2
left_child=1 10 7 8 6 -6 18 11 21 12 -1 -2 23 -14 25 -7 -9 -17 19 -5 -21 22 -3 -4 -25 -11 -27 -26 -29 -30
right_child=2 3 9 4 5 15 -8 16 -10 14 -12 -13 13 -15 -16 17 -18 -19 -20 20 -22 -23 -24 24 27 26 -28 28 29 -31
leaf_value=-0.0068614124025507522 0.00035931568685790565 -0.0048540026411628169 0.0079416758444050117 0.025445221750727869 -0.0046891643331470039 0.0017274692359605433 0.0015190195100321709 0.0059620465299425702 -0.018164636667616692 0.0091049142778595483 0.012238547314659624 -0.0057031161406574738 0.0046353017959948973 -0.0067215380286812492 0.017839516942893815 0.003041516503890767 -0.0027354559296338243 -0.0033828105253804748 -0.0033936869612569225 -0.0066112403441200103 0.019711813554951156 -0.013172022598257031 0.01777256397563572 -0.014133333184322314 0.0022639757854214008 -0.0060528672677437152 0.0047747238131019042 0.0074693478486234852 -0.0015972037440728818 0.004566674215626421
leaf_weight=664.98696467280388 1203.9921858310699 391.60403487086296 118.13011234998703 7.6034862399101248 1285.3350131213665 417.31817427277565 719.34243077039719 225.19283103942871 27.417415380477905 152.4611733853817 10.944675356149672 106.88113859295845 53.44074210524559 75.618746876716614 21.958677142858505 87.007372617721558 49.004867166280746 345.51225924491882 557.33703526854515 19.909582287073139 7.2636618912219992 39.160286247730255 9.8256255686283094 13.17338567972183 1771.7822395563126 25.238941341638565 377.75912681221962 229.63028591871262 172.57648307085037 790.1322478055954
leaf_count=1847 3300 1084 321 21 3554 1142 1970 613 76 413 30 293 146 207 59 238 134 952 1536 55 20 108 27 36 4834 69 1026 626 471 2152
internal_value=4.00282e-06 -0.00304385 0.00260126 -0.00243808 -0.00197414 -0.00290862 -0.000452708 0.000650833 -0.00585475 0.00341443 -0.00655215 -0.00013498 0.00296187 -0.00201892 0.00594163 -0.000215646 0.00440762 -0.00209047 -0.0028481 0.00589547 0.000425158 -0.00508872 -0.00430018 0.00316954 0.00298019 0.00547128 0.00409661 0.00305625 0.00423355 0.00346173
internal_weight=9977.54 4590.57 5386.97 3914.64 3446.63 2135.17 1311.46 1585.07 468.007 3801.9 675.932 1310.87 3224.48 129.059 577.418 849.838 274.198 432.52 592.114 34.7767 27.1732 440.59 401.43 3095.42 2977.29 555.459 402.998 2964.12 1192.34 962.709
internal_count=27360 12660 14700 10783 9488 5886 3602 4340 1295 10360 1877 3593 8793 353 1567 2332 747 1190 1632 96 75 1219 1111 8440 8119 1508 1095 8083 3249 2623
is_linear=0
shrinkage=0.03


Tree=24
num_leaves=31
num_cat=0
split_feature=4 4 4 2 8 8 4 8 4 3 2 0 3 1 0 1 4 0 2 8 1 4 8 4 3 1 0 1 4 2
split_gain=32.3014 9.49738 9.06339 7.97471 6.54603 5.11372 4.78561 4.35928 4.29495 3.95884 4.00894 3.51111 3.63483 4.87958 4.73919 3.78566 4.00179 3.82731 3.42716 3.27381 3.19491 3.74951 5.32598 4.00838 3.29994 3.43497 3.84511 3.12215 3.08905 3.04686
threshold=1731.5000000000002 3428.5000000000005 991.50000000000011 4997.5500000000002 15.500000000000002 13.500000000000002 1205.5000000000002 1.5000000000000002 9657.5000000000018 2913.8250000000003 2906.5450000000005 2898.3300000000004 3363.8250000000003 3653.1350000000007 3636.5100000000007 3299.1200000000003 5638.0000000000009 3351.1850000000004 3655.8850000000007 9.5000000000000018 3033.3250000000003 2805.5000000000005 5.5000000000000009 2823.5000000000005 5178.4150000000009 3752.1650000000004 3992.3950000000004 3688.3750000000005 1566.5000000000002 4207.505000000001
decision_type=2 2 2 2 2 2 2 2 2 2 2 2 2 2 2 2 2 2 2 2 2 2 2 2 2 2 2 2 2 2
left_child=2 20 29 4 5 7 -7 -4 11 10 28 -3 15 14 -14 19 -17 -18 -15 -13 -2 22 24 -23 25 -22 -27 -20 -9 -1
right_child=1 8 3 -5 -6 6 -8 9 -10 -11 -12 12 13 18 -16 16 17 -19 27 -21 21 23 -24 -25 -26 26 -28 -29 -30 -31
leaf_value=-0.0046194925961740452 -0.0013070965010966694 -0.0020829322054633109 -0.0071719348958189247 0.01285349614386461 -0.0046247893133996749 0.019092073411758684 0.0026469957031063189 -0.00074333827167698458 0.012921059731137505 0.00010777300852109998 -0.015951025816248597 -0.0030790517152260535 -0.00066611264889607051 0.019368955672505905 -0.015830469188977122 0.0059211759674001789 0.011999768412586834 0.03532913844369049 -0.011321281904013341 0.0043339183674763419 0.0065253294173894397 -0.011193301696618561 0.00065243307624824145 -0.00049010462490124359 0.021521998709606818 -0.0085169745688293517 0.0028515028739602823 0.002692144117028289 -0.0090303626111573991 -0.014875387972386996
leaf_weight=972.78156596422195 888.36401295661926 143.63028529286385 100.02659529447556 34.698017507791519 500.17022466659546 19.678911805152893 83.511433362960815 156.26136672496796 35.906630098819733 1060.946360886097 23.508905500173569 66.120024561882019 204.85279989242554 10.997608721256254 20.394693613052368 169.54204502701759 35.870511412620544 7.6848251223564139 14.441633403301237 283.57625284790993 224.61503171920776 32.622493773698807 1777.8810531795025 907.80697649717331 9.7742618620395643 31.074887841939926 193.55696851015091 1557.1582613885403 54.637838274240494 26.788308709859848
leaf_count=2796 2527 409 288 96 1435 54 235 446 99 3002 68 186 581 31 58 475 100 21 41 796 630 94 5029 2578 27 89 547 4386 157 79
internal_value=8.29753e-06 0.00118357 -0.0025553 -0.00140551 -0.00165304 -0.000661178 0.00578315 -0.00113775 0.00261876 -0.000671789 -0.00420013 0.00247164 0.00274758 0.00209216 -0.00203915 0.00485299 0.00800491 0.016116 0.00268016 0.00293229 0.000283349 0.000728028 0.00139624 -0.000861387 0.00427717 0.00390198 0.00127882 0.00256337 -0.00289026 -0.00489435
internal_weight=9648.88 6615.87 3033.01 2033.44 1998.74 1498.57 103.19 1395.38 2550.18 1295.35 234.408 2514.27 2370.64 1807.84 225.247 562.794 213.097 43.5553 1582.6 349.696 4065.7 3177.33 2236.9 940.429 459.021 449.247 224.632 1571.6 210.899 999.57
internal_count=27360 18704 8656 5781 5685 4250 289 3961 7183 3673 671 7084 6675 5097 639 1578 596 121 4458 982 11521 8994 6322 2672 1293 1266 636 4427 603 2875
is_linear=0
shrinkage=0.03


Tree=25
num_leaves=31
num_cat=0
split_feature=4 4 4 8 3 0 4 4 8 0 1 3 3 3 8 0 8 0 1 1 4 3 2 1 5 2 2 4 0 0
split_gain=275.568 59.5669 52.2263 19.3751 16.4348 13.8334 11.1199 8.8736 7.15153 7.08912 6.82548 6.72817 5.69067 5.52768 5.01201 4.62961 4.58994 5.37752 4.45359 4.67328 5.81961 4.49627 4.54702 4.43651 4.42673 4.32165 5.2474 5.24914 4.30565 4.378
threshold=2020.5000000000002 3239.5000000000005 1039.5000000000002 18.500000000000004 2881.3150000000005 4659.7900000000009 4471.5000000000009 381.50000000000006 22.500000000000004 2911.7750000000005 3338.1050000000005 4517.8350000000009 3113.7150000000006 3292.3150000000005 13.500000000000002 4486.3300000000008 20.500000000000004 5060.9800000000005 3349.3750000000005 3356.4850000000001 1771.5000000000002 3346.0650000000005 3338.4450000000002 4368.0100000000011 1.0000000180025095e-35 4126.3850000000011 4207.505000000001 2393.5000000000005 3332.7550000000006 3326.98
decision_type=2 2 2 2 2 2 2 2 2 2 2 2 2 2 2 2 2 2 2 2 2 2 2 2 2 2 2 2 2 2
left_child=2 5 7 4 14 9 11 -1 10 -2 12 15 -5 -14 -4 -3 17 -13 21 -20 -21 22 -12 -8 25 -11 -27 -28 29 -15
right_child=1 6 3 8 -6 -7 23 -9 -10 24 18 16 13 28 -16 -17 -18 -19 19 20 -22 -23 -24 -25 -26 26 27 -29 -30 -31
leaf_value=0.023975156845516269 0.0035984568858751652 -0.0061581097320363492 0.011615930491428738 0.012444707613127744 0.0014448514685974257 -0.0088654725109021584 -0.010673099625141689 0.012281913370202758 0.0017187163946680488 -0.0052724413937859519 0.029862551586027405 -0.017959609168841543 -0.006296296303953103 0.0069486906810449136 -0.0079942866193114942 0.011821128123176323 -0.00066408130688461989 -0.0069219770600235141 -0.0015491818938602703 0.020833396945961827 0.0061306721790458504 0.048787704351631454 0.002559809017061228 -0.016033146169470783 -0.00044105442282032934 0.010459336806330138 -0.020444954528035662 0.0016720502040618054 -0.0095554046934787189 0.026375159770182909
leaf_weight=63.042435228824615 277.23475313186646 777.13667775690556 198.3756206035614 130.5594821870327 1338.0425517261028 215.07499550282955 667.41676160693169 794.52771297097206 87.268053993582726 401.44800366461277 15.992648452520376 107.44451212882996 36.760280951857567 58.328788787126541 12.466941878199576 13.107144787907599 27.467796385288239 63.03009919822216 15.957929193973539 71.383708924055099 36.678988337516785 6.3770043849945059 8.3593026399612409 175.52943162620068 940.63976167142391 38.04230909049511 13.343546122312544 34.964064851403236 11.241511106491087 12.717035770416258
leaf_count=220 1117 3335 753 494 5432 940 2961 2984 347 1688 58 486 152 231 53 56 119 279 60 263 141 23 31 791 3891 158 56 147 44 50
internal_value=-1.92446e-05 -0.00538655 0.00692932 0.0043185 0.00267155 -0.00169572 -0.00925801 0.0131415 0.0095073 -0.000791662 0.0111882 -0.00709881 0.00811927 0.00337555 0.0104564 -0.0058599 -0.0120449 -0.0138786 0.0161384 0.0136051 0.015843 0.0263627 0.0204903 -0.0117892 -0.00164371 -0.00396283 0.00212566 -0.00443712 0.00769627 0.010426
internal_weight=6649.96 3751.88 2898.08 2040.51 1548.89 1920.75 1831.13 857.57 491.625 1705.67 404.357 988.186 249.607 119.048 210.843 790.244 197.942 170.475 154.75 124.021 108.063 30.729 24.352 842.946 1428.44 487.798 86.3499 48.3076 82.2873 71.0458
internal_count=27360 16024 11336 8132 6238 7997 8027 3204 1894 7057 1547 4275 971 477 806 3391 884 765 576 464 404 112 89 3752 5940 2049 361 203 325 281
is_linear=0
shrinkage=0.03


Tree=26
num_leaves=31
num_cat=0
split_feature=4 4 4 0 0 1 3 1 0 2 3 0 8 6 4 8 0 2 8 4 4 0 4 4 0 2 3 1 4 0
split_gain=82.9048 10.0369 9.51384 5.88373 6.54973 6.69184 5.5503 5.50635 5.14131 5.06724 4.83057 4.55418 4.4407 3.99977 3.94789 3.90983 3.79421 6.66422 3.61452 4.00768 3.60209 3.59282 3.44404 3.34312 4.03297 3.8151 3.45029 3.29018 3.28992 3.28012
threshold=2161.5000000000005 791.50000000000011 2805.5000000000005 3713.2300000000005 3370.8950000000004 2907.1950000000002 3328.2200000000007 3375.9550000000004 3096.2550000000006 4432.1050000000005 2911.7350000000001 4677.8550000000005 8.5000000000000018 1.0000000180025095e-35 1850.5000000000002 17.500000000000004 4923.7900000000018 4804.7750000000005 18.500000000000004 1619.5000000000002 1326.5000000000002 2689.3100000000009 6210.5000000000009 3307.5000000000005 4214.6000000000013 4482.9650000000011 4207.6400000000003 2890.1650000000004 831.50000000000011 2871.3750000000005
decision_type=2 2 2 2 2 2 2 2 2 2 2 2 2 2 2 2 2 2 2 2 2 2 2 2 2 2 2 2 2 2
left_child=1 -1 9 4 5 13 8 -6 10 -2 14 15 -5 18 -7 -4 17 -11 19 20 27 -17 -13 -23 26 -26 -25 29 -9 -3
right_child=2 3 11 12 7 6 -8 28 -10 16 -12 22 -14 -15 -16 21 -18 -19 -20 -21 -22 23 -24 24 25 -27 -28 -29 -30 -31
leaf_value=-0.006510499794480166 -0.00011750709711431481 -0.0016436258013582138 0.0034928190610785705 0.0021398840234798629 -0.015042749173617987 0.014678112902333037 -0.0035794711070327406 -0.02166661802787281 0.0013460057303608926 0.0043838461632197097 -0.0034162170115526629 0.0053081142957293204 -0.0023495360162076695 -0.0097498826412720663 -0.010123290387713979 0.017226839398927499 0.0010231818339874158 0.020813463164361584 -0.0089914944517839445 0.0011669508855666566 -0.010272462400141314 -0.0023740565522133296 0.017412560366558312 0.00098058549264354051 0.0091797552303976675 -0.0012577563547000905 -0.016432901709391916 -0.019478408972843177 -0.0046345428166061561 0.018558862827161082
leaf_weight=633.51998674869537 1405.9857609570026 76.184141516685486 2391.2557363808155 391.60172095894814 54.013277858495712 23.995142042636875 743.99619928002357 10.416366040706633 712.23012655973434 94.418519914150238 461.45853891968727 554.5439041852951 401.71084836125374 135.80849158763885 7.6078135371208182 12.266173750162123 138.95339888334274 29.057852149009705 94.466000884771347 154.8617550432682 77.553906053304672 212.25357696413994 21.99445578455925 447.42675766348839 110.06786623597145 44.163924068212509 10.480505049228666 8.3413684368133527 507.53534895181656 7.9918382465839377
leaf_count=1763 3854 211 6512 1071 150 66 2059 29 1950 257 1273 1504 1106 377 21 33 379 78 262 428 215 582 59 1222 299 120 29 23 1406 22
internal_value=4.80295e-06 -0.00301009 0.00248558 -0.00243704 -0.00303106 -0.00236955 -0.00154195 -0.00592762 -0.000284238 0.000596777 -0.00263913 0.00331389 -0.00013343 -0.00527521 0.00870764 0.00287523 0.0044236 0.00825025 -0.00382624 -0.00232457 -0.00550384 0.00111009 0.00576989 0.000870291 0.00199524 0.006191 0.000582029 -0.00150648 -0.00497707 0.000274439
internal_weight=9976.16 4503.29 5472.87 3869.77 3076.46 2504.5 1949.29 571.965 1205.29 1668.42 493.061 3804.45 793.313 555.208 31.603 3227.91 262.43 123.476 419.399 324.933 170.071 836.659 576.538 824.393 612.139 154.232 457.907 92.5173 517.952 84.176
internal_count=27360 12432 14928 10669 8492 6907 5369 1585 3310 4568 1360 10360 2177 1538 87 8797 714 335 1161 899 471 2285 1563 2252 1670 419 1251 256 1435 233
is_linear=0
shrinkage=0.03


Tree=27
num_leaves=31
num_cat=0
split_feature=4 4 4 2 8 8 4 8 4 4 3 3 0 0 2 3 1 4 5 4 0 1 4 8 4 3 1 0 4 4
split_gain=30.8076 9.04648 8.57201 7.64726 6.18527 4.87746 4.58755 4.16816 4.0979 3.88133 3.37201 4.0025 4.70078 4.21095 4.12162 3.33457 3.20264 3.89299 3.09606 6.28157 3.06064 3.0297 3.52346 5.12312 3.86037 3.14353 3.24617 3.70513 3.01866 4.91146
threshold=1731.5000000000002 3428.5000000000005 991.50000000000011 4997.5500000000002 15.500000000000002 13.500000000000002 1205.5000000000002 1.5000000000000002 9657.5000000000018 1680.5000000000002 2917.0950000000007 3363.8250000000003 3650.5400000000004 3589.3850000000007 3655.8850000000007 3373.8650000000002 3358.1100000000001 4739.5000000000009 1.0000000180025095e-35 3926.5000000000005 2898.3300000000004 3033.3250000000003 2805.5000000000005 5.5000000000000009 2823.5000000000005 5178.4150000000009 3752.1650000000004 3992.3950000000004 1342.5000000000002 1658.5000000000002
decision_type=2 2 2 2 2 2 2 2 2 2 2 2 2 2 2 2 2 2 2 2 2 2 2 2 2 2 2 2 2 2
left_child=2 21 -1 4 5 7 -7 -4 10 -9 18 16 13 15 -14 -13 -12 -18 19 -3 -21 -2 23 25 -24 26 -23 -28 -5 -30
right_child=1 8 3 28 -6 6 -8 9 -10 -11 11 12 14 -15 -16 -17 17 -19 -20 20 -22 22 24 -25 -26 -27 27 -29 29 -31
leaf_value=-0.0047726195660937349 -0.0012709428132340549 0.016978273312980265 -0.007029596519571771 0.026882042960900569 -0.0045117421080510499 0.018639766292547866 0.002560668263684447 -0.00017591520995498893 0.012607657358231215 -0.0061577300506190724 0.0044319860170212149 -0.010853368029345457 0.022596007326658486 -0.011369071888031027 0.0025035206734950253 0.0012646315453326636 0.0055857738004248614 0.027543026613171588 -0.0043356994984399561 -0.0081589050961626292 0.013908615806250671 0.0063631452494248564 -0.010987043790879884 0.00062902951976289692 -0.00046618394646914444 0.020978664790781733 -0.0083636001295749798 0.0028066705636648195 -0.002286115473681329 0.025794029397473512
leaf_weight=997.77222001552582 887.94055724143982 21.439610153436661 99.809692472219467 9.6010303497314435 499.35903751850128 19.741377621889114 83.59057143330574 1188.8681838512421 35.996414631605148 106.35755985975266 501.34376132488251 23.27839782834053 9.2424779236316663 36.247429996728897 1572.6253571808338 167.44322052598 17.896331369876865 12.235979974269865 119.20242819190025 27.74294102191925 7.1051776707172385 224.98830705881119 32.512895733118057 1778.3447103202343 907.52837777137756 9.8145258128643018 31.003712296485901 193.65212088823318 16.75096964836121 8.4259075224399549
leaf_count=2875 2527 61 288 26 1435 54 235 3371 99 302 1405 67 26 103 4427 474 50 33 339 79 20 630 94 5029 2578 27 89 547 47 23
internal_value=9.89138e-06 0.00115706 -0.00249531 -0.00137737 -0.00162016 -0.000656488 0.00563255 -0.00112232 0.00255716 -0.000667112 0.00241336 0.00271411 0.00204162 -0.00199584 0.00262092 -0.000214423 0.00500291 0.0145021 -0.00159751 0.00420125 -0.00365956 0.000278312 0.000711199 0.00135864 -0.000830065 0.00418263 0.00381601 0.00126511 0.0125694 0.00711142
internal_weight=9647.86 6617.58 3030.28 2032.5 1997.73 1498.37 103.332 1395.04 2551.8 1295.23 2515.8 2340.31 1808.84 226.969 1581.87 190.722 531.476 30.1323 175.49 56.2877 34.8481 4065.79 3177.84 2237.8 940.041 459.459 449.644 224.656 34.7779 25.1769
internal_count=27360 18704 8656 5781 5685 4250 289 3961 7183 3673 7084 6585 5097 644 4453 541 1488 83 499 160 99 11521 8994 6322 2672 1293 1266 636 96 70
is_linear=0
shrinkage=0.03


Tree=28
num_leaves=31
num_cat=0
split_feature=4 4 4 8 3 2 0 4 4 1 3 2 1 2 1 8 8 4 1 8 3 4 8 1 1 7 2 0 0 1
split_gain=260.688 57.3513 48.5881 18.1644 15.4181 13.9509 8.54753 8.40156 8.36841 7.63737 6.92297 6.83168 8.59085 7.73968 6.61609 6.42033 6.02978 5.26384 5.25558 4.74718 4.55241 4.50225 4.44886 5.69901 6.88517 4.2808 4.1693 5.62904 6.51635 4.68687
threshold=2020.5000000000002 3778.5000000000005 1039.5000000000002 18.500000000000004 2881.3150000000005 3050.4150000000004 4659.7900000000009 544.50000000000011 3328.5000000000005 4622.7200000000003 3348.4900000000002 3747.3250000000003 3338.1050000000005 3033.4600000000005 2710.0500000000006 21.500000000000004 19.500000000000004 5017.5000000000009 4168.2350000000015 13.500000000000002 3234.4550000000004 4434.5000000000009 8.5000000000000018 2680.3000000000006 2805.7300000000005 1.0000000180025095e-35 4997.5500000000002 3362.0250000000005 3096.2550000000006 3288.0900000000006
decision_type=2 2 2 2 2 2 2 2 2 2 2 2 2 2 2 2 2 2 2 2 2 2 2 2 2 2 2 2 2 2
